{"N":431,
  "sizes": [
    20,
    216,
    216,
    10
  ],
  "layers": [
    {
      "0": {},
      "1": {},
      "2": {},
      "3": {},
      "4": {},
      "5": {},
      "6": {},
      "7": {},
      "8": {},
      "9": {},
      "10": {},
      "11": {},
      "12": {},
      "13": {},
      "14": {},
      "15": {},
      "16": {},
      "17": {},
      "18": {},
      "19": {}
    },
    {
      "0": {
        "bias": -4.981234550476074,
        "weights": {
          "0": 0.013034122064709663,
          "1": 2.141714572906494,
          "2": 2.369443416595459,
          "3": 0.9280539155006409,
          "4": -0.5779393315315247,
          "5": -0.028534073382616043,
          "6": -0.44632357358932495,
          "7": -0.17495477199554443,
          "8": -0.06599370390176773,
          "9": -0.7587229609489441,
          "10": 0.13287758827209473,
          "11": 2.2368557453155518,
          "12": 2.1865367889404297,
          "13": 1.0040256977081299,
          "14": -0.37502968311309814,
          "15": -0.1928606778383255,
          "16": -0.7855033874511719,
          "17": -0.315905898809433,
          "18": 0.05270196497440338,
          "19": -0.8358566761016846
        }
      },
      "1": {
        "bias": 1.9082813262939453,
        "weights": {
          "0": 0.016949566081166267,
          "1": -2.3154144287109375,
          "2": -1.8615154027938843,
          "3": -0.10576893389225006,
          "4": -1.3265273571014404,
          "5": -1.054600715637207,
          "6": -0.29572370648384094,
          "7": 0.2996852695941925,
          "8": -0.025321178138256073,
          "9": -0.0785699188709259,
          "10": -0.16663093864917755,
          "11": -2.3566982746124268,
          "12": -1.950555682182312,
          "13": -0.3628861606121063,
          "14": -1.247182011604309,
          "15": -1.175507664680481,
          "16": -0.004277640487998724,
          "17": -0.034688882529735565,
          "18": 0.34841352701187134,
          "19": -0.03543016314506531
        }
      },
      "2": {
        "bias": 1.6177945137023926,
        "weights": {
          "0": 0.07268752157688141,
          "1": -3.2470579147338867,
          "2": -2.1161177158355713,
          "3": -1.173486590385437,
          "4": 0.5691260695457458,
          "5": 0.26590201258659363,
          "6": -0.49229875206947327,
          "7": -0.48071205615997314,
          "8": -0.47434765100479126,
          "9": -0.2655438184738159,
          "10": -0.1563028246164322,
          "11": -3.1995413303375244,
          "12": -1.9872437715530396,
          "13": -1.2181864976882935,
          "14": 0.3558739423751831,
          "15": 0.13733269274234772,
          "16": -0.5310906171798706,
          "17": -0.13705827295780182,
          "18": -0.2883290946483612,
          "19": -0.18907809257507324
        }
      },
      "3": {
        "bias": -4.506066799163818,
        "weights": {
          "0": -0.07094716280698776,
          "1": 2.6293883323669434,
          "2": 0.41191717982292175,
          "3": -0.35925737023353577,
          "4": 0.7357482314109802,
          "5": 1.4557325839996338,
          "6": -0.0035808077082037926,
          "7": -1.3267724514007568,
          "8": -0.2529742419719696,
          "9": -0.7467516660690308,
          "10": 0.14529815316200256,
          "11": 3.029475212097168,
          "12": 0.13763229548931122,
          "13": -0.13287073373794556,
          "14": 1.1780157089233398,
          "15": 1.4423481225967407,
          "16": -0.4994300305843353,
          "17": -1.2016223669052124,
          "18": -0.33703160285949707,
          "19": -0.7689393758773804
        }
      },
      "4": {
        "bias": -4.078521251678467,
        "weights": {
          "0": 0.0022718554828315973,
          "1": 5.608361721038818,
          "2": 0.8120786547660828,
          "3": 0.3225615322589874,
          "4": 0.09618319571018219,
          "5": 0.2623381018638611,
          "6": -0.516875147819519,
          "7": -0.3368825614452362,
          "8": -0.15979667007923126,
          "9": -0.46286511421203613,
          "10": 0.0297145564109087,
          "11": 5.741595268249512,
          "12": 0.9164687395095825,
          "13": 0.2791683077812195,
          "14": 0.39815980195999146,
          "15": 0.13541179895401,
          "16": 0.0019377300050109625,
          "17": -0.25740694999694824,
          "18": -0.1556585282087326,
          "19": 0.11058986932039261
        }
      },
      "5": {
        "bias": -1.0131664276123047,
        "weights": {
          "0": 0.1624794751405716,
          "1": -0.23670847713947296,
          "2": -0.28208038210868835,
          "3": -0.3235931098461151,
          "4": -0.254639595746994,
          "5": -0.129541277885437,
          "6": 0.011303131468594074,
          "7": 0.2637275755405426,
          "8": -5.328770160675049,
          "9": -1.6602344512939453,
          "10": -0.18834829330444336,
          "11": -0.17878393828868866,
          "12": -0.39584314823150635,
          "13": -0.3302912712097168,
          "14": -0.3697901666164398,
          "15": -0.21966390311717987,
          "16": 0.22270114719867706,
          "17": 0.26065748929977417,
          "18": 4.754453659057617,
          "19": -1.3817561864852905
        }
      },
      "6": {
        "bias": -4.994814395904541,
        "weights": {
          "0": 0.11165942251682281,
          "1": 2.9896111488342285,
          "2": 0.04035547003149986,
          "3": -0.5242403149604797,
          "4": 0.06995917856693268,
          "5": 0.49277010560035706,
          "6": -0.6537756323814392,
          "7": -0.7792695164680481,
          "8": -0.23801377415657043,
          "9": -1.1116832494735718,
          "10": 0.14782805740833282,
          "11": 2.477238178253174,
          "12": -0.07459090650081635,
          "13": -0.424609512090683,
          "14": 0.6757887005805969,
          "15": 0.522496223449707,
          "16": -0.6161633729934692,
          "17": -0.7834180593490601,
          "18": -0.32598480582237244,
          "19": -1.126900315284729
        }
      },
      "7": {
        "bias": 2.8147435188293457,
        "weights": {
          "0": 0.14172780513763428,
          "1": -6.608187198638916,
          "2": -1.28412926197052,
          "3": 0.47101420164108276,
          "4": 0.26866084337234497,
          "5": 0.3378734290599823,
          "6": 0.345673143863678,
          "7": 0.3035387098789215,
          "8": -0.11418362706899643,
          "9": 0.3387201726436615,
          "10": -0.1896590292453766,
          "11": -6.567595958709717,
          "12": -1.2216941118240356,
          "13": 0.34096503257751465,
          "14": 0.25350454449653625,
          "15": -0.04992740601301193,
          "16": 0.40632838010787964,
          "17": 0.3127990961074829,
          "18": 0.20624026656150818,
          "19": -0.03714804723858833
        }
      },
      "8": {
        "bias": -1.792618989944458,
        "weights": {
          "0": 0.1168384775519371,
          "1": -0.6062117218971252,
          "2": 2.35097074508667,
          "3": -1.1301902532577515,
          "4": -0.9075697660446167,
          "5": -0.8590762615203857,
          "6": 1.0343303680419922,
          "7": 0.1266305297613144,
          "8": 0.18829156458377838,
          "9": 0.7082479000091553,
          "10": -0.03148354962468147,
          "11": -0.5849025845527649,
          "12": 2.253528594970703,
          "13": -1.5434874296188354,
          "14": -1.2075480222702026,
          "15": -0.8229748606681824,
          "16": 0.7677379250526428,
          "17": 0.368126779794693,
          "18": 0.20496249198913574,
          "19": 0.7456129193305969
        }
      },
      "9": {
        "bias": -5.956408500671387,
        "weights": {
          "0": -0.032484084367752075,
          "1": 1.1883361339569092,
          "2": 1.2958056926727295,
          "3": 1.1161153316497803,
          "4": -0.18072041869163513,
          "5": -0.9228941202163696,
          "6": 1.4243041276931763,
          "7": 0.6533448100090027,
          "8": 0.9307114481925964,
          "9": -0.3238081932067871,
          "10": -0.10519405454397202,
          "11": 1.1046580076217651,
          "12": 1.1486455202102661,
          "13": 0.9470433592796326,
          "14": -0.06500640511512756,
          "15": -0.8494287133216858,
          "16": 1.6305625438690186,
          "17": 0.5472155809402466,
          "18": 0.7334251403808594,
          "19": -0.3604744076728821
        }
      },
      "10": {
        "bias": -4.098069667816162,
        "weights": {
          "0": 0.0130684282630682,
          "1": 1.6458227634429932,
          "2": 0.23276636004447937,
          "3": 0.6750794053077698,
          "4": 0.11527692526578903,
          "5": 0.07233953475952148,
          "6": -0.5805628895759583,
          "7": -0.4229365885257721,
          "8": -0.6833069920539856,
          "9": 1.2138323783874512,
          "10": 0.18635347485542297,
          "11": 1.9276927709579468,
          "12": 0.10889280587434769,
          "13": 0.6256217956542969,
          "14": 0.317567378282547,
          "15": 0.28328898549079895,
          "16": -0.90312260389328,
          "17": -0.5160773396492004,
          "18": -0.47669732570648193,
          "19": 1.2777981758117676
        }
      },
      "11": {
        "bias": 0.8948914408683777,
        "weights": {
          "0": 0.13775315880775452,
          "1": -2.757704257965088,
          "2": -1.8512588739395142,
          "3": -0.4633408784866333,
          "4": -0.32451140880584717,
          "5": 0.30592408776283264,
          "6": 0.28487807512283325,
          "7": -0.06494610011577606,
          "8": -0.34700626134872437,
          "9": 0.8593112230300903,
          "10": -0.1685657799243927,
          "11": -2.754732131958008,
          "12": -2.1087749004364014,
          "13": -0.4417242705821991,
          "14": -0.14063332974910736,
          "15": 0.3086146414279938,
          "16": 0.05220254138112068,
          "17": 0.20278200507164001,
          "18": 0.18809175491333008,
          "19": 0.9042889475822449
        }
      },
      "12": {
        "bias": -13.009384155273438,
        "weights": {
          "0": -0.027464786544442177,
          "1": -0.18796657025814056,
          "2": -0.1451038122177124,
          "3": 6.598714828491211,
          "4": 3.5679993629455566,
          "5": 1.5470983982086182,
          "6": 0.4486461579799652,
          "7": 0.9164601564407349,
          "8": 0.1092553585767746,
          "9": -0.3893851339817047,
          "10": 0.07878119498491287,
          "11": -0.09973785281181335,
          "12": -0.3305823504924774,
          "13": 6.839086532592773,
          "14": 3.589092254638672,
          "15": 1.3454161882400513,
          "16": 0.9929068684577942,
          "17": 0.7976440787315369,
          "18": 0.33250749111175537,
          "19": -0.26343441009521484
        }
      },
      "13": {
        "bias": 1.2527492046356201,
        "weights": {
          "0": 0.12206584960222244,
          "1": 1.2052925825119019,
          "2": 0.1914423257112503,
          "3": -4.196441173553467,
          "4": -2.760786533355713,
          "5": -1.9165046215057373,
          "6": 0.3411027491092682,
          "7": 0.5823135375976562,
          "8": 0.039925962686538696,
          "9": 0.3211977481842041,
          "10": 0.15275351703166962,
          "11": 0.9164607524871826,
          "12": 0.5402318239212036,
          "13": -4.448423385620117,
          "14": -3.152341604232788,
          "15": -1.6451153755187988,
          "16": 0.08340626209974289,
          "17": -0.36124348640441895,
          "18": 0.6841111779212952,
          "19": 0.8292720317840576
        }
      },
      "14": {
        "bias": -0.25098252296447754,
        "weights": {
          "0": 0.12238805741071701,
          "1": -2.700676441192627,
          "2": -3.001316785812378,
          "3": 0.028817065060138702,
          "4": -0.16952352225780487,
          "5": -0.07038994133472443,
          "6": 0.7680989503860474,
          "7": 0.6136804223060608,
          "8": 0.42732879519462585,
          "9": 0.3464514911174774,
          "10": 0.03851436823606491,
          "11": -2.6949214935302734,
          "12": -2.948230028152466,
          "13": -0.2819903492927551,
          "14": -0.23279358446598053,
          "15": -0.3856355845928192,
          "16": 0.9053201079368591,
          "17": 0.646183967590332,
          "18": 0.34754735231399536,
          "19": 0.05485190451145172
        }
      },
      "15": {
        "bias": 1.411043643951416,
        "weights": {
          "0": 0.06505387276411057,
          "1": 0.48037636280059814,
          "2": -0.9989282488822937,
          "3": -1.6219606399536133,
          "4": -0.2077861875295639,
          "5": -0.12226517498493195,
          "6": -0.5374712347984314,
          "7": -0.6867207884788513,
          "8": -0.05549873411655426,
          "9": -0.543563961982727,
          "10": 0.12189439684152603,
          "11": 0.5205895900726318,
          "12": -0.8936503529548645,
          "13": -1.2662370204925537,
          "14": -0.17885832488536835,
          "15": -0.2861683666706085,
          "16": -0.496609628200531,
          "17": -0.37933748960494995,
          "18": -0.3034805953502655,
          "19": 0.4401710331439972
        }
      },
      "16": {
        "bias": -1.3270670175552368,
        "weights": {
          "0": -0.1850450485944748,
          "1": 0.14360427856445312,
          "2": 1.616181492805481,
          "3": 0.10488953441381454,
          "4": 0.06119706481695175,
          "5": -0.6453022360801697,
          "6": -0.946961522102356,
          "7": -0.22369402647018433,
          "8": -0.07226932793855667,
          "9": -0.8667751550674438,
          "10": -0.08520236611366272,
          "11": 0.23824071884155273,
          "12": 1.6520103216171265,
          "13": 0.2568323016166687,
          "14": -0.17738455533981323,
          "15": -0.5404775142669678,
          "16": -1.1898853778839111,
          "17": -0.20822474360466003,
          "18": -0.04001142829656601,
          "19": -0.5420712232589722
        }
      },
      "17": {
        "bias": 0.5103535056114197,
        "weights": {
          "0": 0.10061394423246384,
          "1": -2.3205530643463135,
          "2": -1.8313990831375122,
          "3": 0.26777970790863037,
          "4": -0.1746370792388916,
          "5": -0.3473591208457947,
          "6": 0.4243692457675934,
          "7": 0.6330806016921997,
          "8": 0.02643096260726452,
          "9": -0.698022723197937,
          "10": -0.18685317039489746,
          "11": -2.181088924407959,
          "12": -1.773070216178894,
          "13": 0.4479271173477173,
          "14": -0.23895952105522156,
          "15": -0.09438371658325195,
          "16": 0.4468405544757843,
          "17": 0.2364433854818344,
          "18": 0.2700054347515106,
          "19": -0.9702564477920532
        }
      },
      "18": {
        "bias": -4.3881659507751465,
        "weights": {
          "0": -0.10001394897699356,
          "1": 1.6117424964904785,
          "2": 1.4714056253433228,
          "3": 0.6952776312828064,
          "4": 0.22559736669063568,
          "5": -0.1930938959121704,
          "6": -0.863796591758728,
          "7": -0.47249048948287964,
          "8": -0.008793390356004238,
          "9": -0.1574060469865799,
          "10": -0.034168120473623276,
          "11": 1.7658518552780151,
          "12": 1.648980975151062,
          "13": 0.8236057758331299,
          "14": 0.2589249908924103,
          "15": -0.29997798800468445,
          "16": -1.0367735624313354,
          "17": -0.5364254117012024,
          "18": 0.0056836591102182865,
          "19": -0.07222980260848999
        }
      },
      "19": {
        "bias": -2.2287302017211914,
        "weights": {
          "0": 0.08138155192136765,
          "1": -0.5254042148590088,
          "2": 3.242079257965088,
          "3": 0.8527783751487732,
          "4": -0.18160700798034668,
          "5": -1.1333714723587036,
          "6": -0.5975796580314636,
          "7": -0.3791244924068451,
          "8": -0.1507028490304947,
          "9": -0.46824541687965393,
          "10": 0.17415088415145874,
          "11": -0.8556714057922363,
          "12": 2.7652933597564697,
          "13": 1.3969136476516724,
          "14": -0.09158001095056534,
          "15": -1.3702572584152222,
          "16": -0.2218323051929474,
          "17": -0.03367972373962402,
          "18": -0.38503023982048035,
          "19": -0.4157499670982361
        }
      },
      "20": {
        "bias": 1.655515193939209,
        "weights": {
          "0": 0.07768432050943375,
          "1": -3.6023495197296143,
          "2": -2.3865132331848145,
          "3": -0.9075098037719727,
          "4": -0.6550124883651733,
          "5": 0.09389381110668182,
          "6": 0.18774031102657318,
          "7": -0.2570587694644928,
          "8": -0.39301079511642456,
          "9": -0.20473048090934753,
          "10": 0.12004046887159348,
          "11": -3.2444207668304443,
          "12": -1.97700035572052,
          "13": -0.689501941204071,
          "14": -0.29463261365890503,
          "15": 0.1820148378610611,
          "16": -0.10586745291948318,
          "17": -0.18771295249462128,
          "18": -0.11918892711400986,
          "19": -0.17513708770275116
        }
      },
      "21": {
        "bias": 0.14620591700077057,
        "weights": {
          "0": -0.17956602573394775,
          "1": 0.01015061978250742,
          "2": 0.2667481601238251,
          "3": 0.2678975462913513,
          "4": -2.9434099197387695,
          "5": -0.6218231320381165,
          "6": 0.4007694125175476,
          "7": 0.8012772798538208,
          "8": 0.8417076468467712,
          "9": -0.8984224796295166,
          "10": -0.04290030896663666,
          "11": -0.23418396711349487,
          "12": 0.40180855989456177,
          "13": 0.26512834429740906,
          "14": -2.713813543319702,
          "15": -0.44369974732398987,
          "16": 0.4279853105545044,
          "17": 0.7787562012672424,
          "18": -0.9086374640464783,
          "19": -0.6131859421730042
        }
      },
      "22": {
        "bias": -0.7550984621047974,
        "weights": {
          "0": -0.07174809277057648,
          "1": 0.3260044455528259,
          "2": 0.8728488087654114,
          "3": -0.3976907432079315,
          "4": 0.17958736419677734,
          "5": -1.1274745464324951,
          "6": -1.1459312438964844,
          "7": -0.583124041557312,
          "8": -0.20106564462184906,
          "9": 0.4468022584915161,
          "10": 0.05408468842506409,
          "11": 0.49714934825897217,
          "12": 1.1772308349609375,
          "13": -0.6537714600563049,
          "14": 0.22238951921463013,
          "15": -1.211953043937683,
          "16": -1.0911073684692383,
          "17": -0.5476318597793579,
          "18": -0.1338529735803604,
          "19": 0.5290467739105225
        }
      },
      "23": {
        "bias": 0.9915626645088196,
        "weights": {
          "0": -0.045579079538583755,
          "1": -1.0884854793548584,
          "2": -0.6980019807815552,
          "3": -0.18846814334392548,
          "4": 0.24070380628108978,
          "5": 0.7503928542137146,
          "6": -0.7433300614356995,
          "7": -1.5398577451705933,
          "8": -0.9944174885749817,
          "9": 0.6409416198730469,
          "10": 0.05731527507305145,
          "11": -1.1667966842651367,
          "12": -0.7884957194328308,
          "13": -0.29505637288093567,
          "14": 0.28313907980918884,
          "15": 0.6052996516227722,
          "16": -1.1862901449203491,
          "17": -1.3180564641952515,
          "18": -0.5721571445465088,
          "19": 0.6043203473091125
        }
      },
      "24": {
        "bias": -18.056779861450195,
        "weights": {
          "0": 0.0723949521780014,
          "1": -0.12969498336315155,
          "2": -0.10828948765993118,
          "3": 9.19282341003418,
          "4": 5.083265781402588,
          "5": 2.3445093631744385,
          "6": 1.595862627029419,
          "7": 0.22809655964374542,
          "8": -0.016099054366350174,
          "9": 0.07900377362966537,
          "10": 0.05890091508626938,
          "11": -0.2812374234199524,
          "12": 0.010731467977166176,
          "13": 9.246973037719727,
          "14": 4.914214134216309,
          "15": 2.665790319442749,
          "16": 0.5621263384819031,
          "17": 0.39283129572868347,
          "18": -0.017742952331900597,
          "19": 0.3032389283180237
        }
      },
      "25": {
        "bias": -1.271630048751831,
        "weights": {
          "0": 0.06451306492090225,
          "1": 0.5492494106292725,
          "2": 1.5036325454711914,
          "3": -0.6596441268920898,
          "4": -0.6180167198181152,
          "5": 0.09713564068078995,
          "6": -0.9572691321372986,
          "7": -0.7291902303695679,
          "8": -0.21015040576457977,
          "9": -0.12940306961536407,
          "10": 0.07615279406309128,
          "11": 0.06503869593143463,
          "12": 1.7793002128601074,
          "13": -0.8321490287780762,
          "14": -0.5556639432907104,
          "15": 0.2968543469905853,
          "16": -1.542722225189209,
          "17": -0.8217958211898804,
          "18": -0.4460965394973755,
          "19": -0.073063924908638
        }
      },
      "26": {
        "bias": -0.2972279191017151,
        "weights": {
          "0": -0.011919353157281876,
          "1": -0.20738518238067627,
          "2": -0.10042373090982437,
          "3": -0.4847392141819,
          "4": -0.5181501507759094,
          "5": -0.36689838767051697,
          "6": -0.439169317483902,
          "7": -0.19700337946414948,
          "8": -0.007990805432200432,
          "9": -0.1922903209924698,
          "10": 0.12949348986148834,
          "11": -0.12299400568008423,
          "12": -0.047686412930488586,
          "13": -0.3082817792892456,
          "14": -0.6584287881851196,
          "15": -0.28222137689590454,
          "16": 0.26250502467155457,
          "17": -0.26620131731033325,
          "18": 0.1275162547826767,
          "19": -0.34830933809280396
        }
      },
      "27": {
        "bias": 1.5858412981033325,
        "weights": {
          "0": 0.17313876748085022,
          "1": -2.800483226776123,
          "2": -2.2842886447906494,
          "3": -1.0649809837341309,
          "4": 0.16505283117294312,
          "5": 0.20339614152908325,
          "6": -0.40143051743507385,
          "7": -0.40196168422698975,
          "8": -0.28196272253990173,
          "9": -0.3918677866458893,
          "10": 0.18258227407932281,
          "11": -2.7300620079040527,
          "12": -2.0541250705718994,
          "13": -1.0112539529800415,
          "14": 0.011679298244416714,
          "15": -0.07306890189647675,
          "16": -0.30178192257881165,
          "17": 0.0480458065867424,
          "18": -0.04850071296095848,
          "19": -0.3145952820777893
        }
      },
      "28": {
        "bias": 1.6650959253311157,
        "weights": {
          "0": 0.13658849895000458,
          "1": -2.4054882526397705,
          "2": -1.4481786489486694,
          "3": -1.6712231636047363,
          "4": -0.24960535764694214,
          "5": 0.014205961488187313,
          "6": -0.2410576343536377,
          "7": -0.24313177168369293,
          "8": 0.01903674192726612,
          "9": 0.19641605019569397,
          "10": 0.09356459975242615,
          "11": -2.336533308029175,
          "12": -1.8392339944839478,
          "13": -1.8121938705444336,
          "14": -0.4319874048233032,
          "15": -0.243901327252388,
          "16": -0.29581278562545776,
          "17": 0.11312592774629593,
          "18": 0.12566448748111725,
          "19": -0.056342728435993195
        }
      },
      "29": {
        "bias": 2.235384702682495,
        "weights": {
          "0": 0.11131258308887482,
          "1": -2.104491710662842,
          "2": -1.377492904663086,
          "3": -0.4621610641479492,
          "4": -0.4131816625595093,
          "5": -0.2781682312488556,
          "6": -0.6723741888999939,
          "7": -0.40349113941192627,
          "8": 0.3188367187976837,
          "9": -0.280723512172699,
          "10": 0.0896783396601677,
          "11": -1.8768322467803955,
          "12": -1.0520046949386597,
          "13": -0.3956260681152344,
          "14": -0.5551064610481262,
          "15": 0.02650594897568226,
          "16": -0.9466737508773804,
          "17": 0.010240309871733189,
          "18": -0.5891400575637817,
          "19": -0.12160224467515945
        }
      },
      "30": {
        "bias": -6.862153053283691,
        "weights": {
          "0": -0.09874948114156723,
          "1": 3.127552032470703,
          "2": 1.1771690845489502,
          "3": 0.7853043079376221,
          "4": 0.4340878129005432,
          "5": 0.14562636613845825,
          "6": 0.5661122798919678,
          "7": -0.02663610503077507,
          "8": -0.12408880144357681,
          "9": 0.3037724494934082,
          "10": -0.10735847800970078,
          "11": 2.9379312992095947,
          "12": 1.0307304859161377,
          "13": 0.7313264608383179,
          "14": 0.6608916521072388,
          "15": 0.4498724937438965,
          "16": 0.2530377209186554,
          "17": 0.26532456278800964,
          "18": -0.10596892237663269,
          "19": 0.5078003406524658
        }
      },
      "31": {
        "bias": 1.0545685291290283,
        "weights": {
          "0": 0.09954463690519333,
          "1": -2.6851143836975098,
          "2": -2.209063768386841,
          "3": -1.3404548168182373,
          "4": 0.4960055351257324,
          "5": 0.502213716506958,
          "6": -0.1786079704761505,
          "7": -0.14716117084026337,
          "8": -0.36979442834854126,
          "9": -0.42066270112991333,
          "10": 0.1188250184059143,
          "11": -2.621509313583374,
          "12": -2.1701977252960205,
          "13": -1.3673646450042725,
          "14": 0.4172820448875427,
          "15": 0.5962418913841248,
          "16": -0.060684528201818466,
          "17": 0.11835634708404541,
          "18": -0.24923184514045715,
          "19": -0.3685768246650696
        }
      },
      "32": {
        "bias": 1.1700825691223145,
        "weights": {
          "0": -0.012266134843230247,
          "1": -1.3392728567123413,
          "2": -1.3888399600982666,
          "3": -0.3764526844024658,
          "4": -0.5392153859138489,
          "5": 0.19350376725196838,
          "6": -0.5508286356925964,
          "7": -0.31967151165008545,
          "8": -0.18140169978141785,
          "9": 0.28022313117980957,
          "10": 0.1675049066543579,
          "11": -1.6642100811004639,
          "12": -1.5111407041549683,
          "13": -0.45229050517082214,
          "14": -0.8395093083381653,
          "15": -0.16300740838050842,
          "16": -0.47453489899635315,
          "17": -0.5134555101394653,
          "18": -0.16894172132015228,
          "19": 0.22574441134929657
        }
      },
      "33": {
        "bias": 1.3495630025863647,
        "weights": {
          "0": 0.1567070484161377,
          "1": -4.34594202041626,
          "2": -2.926133632659912,
          "3": -1.2883222103118896,
          "4": 0.7035326957702637,
          "5": 1.0031709671020508,
          "6": 0.5618308186531067,
          "7": -0.23554758727550507,
          "8": 0.45084667205810547,
          "9": 0.39313986897468567,
          "10": -0.058011479675769806,
          "11": -3.9116930961608887,
          "12": -2.4712843894958496,
          "13": -1.168136715888977,
          "14": 0.8552861213684082,
          "15": 1.4543770551681519,
          "16": 0.6024950742721558,
          "17": 0.32346639037132263,
          "18": 0.3906446099281311,
          "19": 0.014633022248744965
        }
      },
      "34": {
        "bias": -3.55206036567688,
        "weights": {
          "0": 0.1757507026195526,
          "1": 1.1257069110870361,
          "2": 1.167663335800171,
          "3": 0.31151071190834045,
          "4": 0.5625454783439636,
          "5": -0.2081657350063324,
          "6": 0.5235759019851685,
          "7": -0.5172003507614136,
          "8": 0.5821551084518433,
          "9": -2.123497486114502,
          "10": 0.10505490750074387,
          "11": 1.2974939346313477,
          "12": 1.25153386592865,
          "13": 0.0729036033153534,
          "14": 0.6514069437980652,
          "15": -0.22830317914485931,
          "16": 0.32240116596221924,
          "17": -0.40417033433914185,
          "18": 0.9311765432357788,
          "19": -2.2398083209991455
        }
      },
      "35": {
        "bias": 1.0685285329818726,
        "weights": {
          "0": 0.05244072899222374,
          "1": -1.339644432067871,
          "2": -1.0996211767196655,
          "3": -0.594533383846283,
          "4": -0.12351743131875992,
          "5": -0.5885033011436462,
          "6": -0.012378036044538021,
          "7": 0.4006911814212799,
          "8": -0.0674600601196289,
          "9": -0.3850131034851074,
          "10": -0.04991060495376587,
          "11": -1.6786433458328247,
          "12": -1.4423255920410156,
          "13": -1.0032063722610474,
          "14": -0.36534562706947327,
          "15": -0.11503471434116364,
          "16": 0.06767944991588593,
          "17": -0.02070462889969349,
          "18": 0.18042539060115814,
          "19": -0.752741277217865
        }
      },
      "36": {
        "bias": 2.3696324825286865,
        "weights": {
          "0": -0.021862896159291267,
          "1": -2.345431327819824,
          "2": -2.0356740951538086,
          "3": -1.6361565589904785,
          "4": -1.0486422777175903,
          "5": -0.32628846168518066,
          "6": 0.09586258977651596,
          "7": 0.04493722319602966,
          "8": 0.08773411065340042,
          "9": 0.026881450787186623,
          "10": 0.033922962844371796,
          "11": -2.6813578605651855,
          "12": -1.8803085088729858,
          "13": -1.4445502758026123,
          "14": -0.9248685240745544,
          "15": -0.14682242274284363,
          "16": 0.07310845702886581,
          "17": -0.0693148523569107,
          "18": -0.24185886979103088,
          "19": 0.010355469770729542
        }
      },
      "37": {
        "bias": 1.6446187496185303,
        "weights": {
          "0": -0.005107933189719915,
          "1": -2.139414072036743,
          "2": -1.258449912071228,
          "3": -0.6203840374946594,
          "4": 0.2490944266319275,
          "5": 0.08261899650096893,
          "6": -0.6725863814353943,
          "7": -0.4001882076263428,
          "8": -0.4094456136226654,
          "9": -0.19564948976039886,
          "10": -0.1329880803823471,
          "11": -2.330207586288452,
          "12": -1.3966349363327026,
          "13": -0.7248134016990662,
          "14": -0.08784210681915283,
          "15": -0.14140373468399048,
          "16": -0.8156829476356506,
          "17": -0.2976352274417877,
          "18": 0.011835630983114243,
          "19": -0.15869984030723572
        }
      },
      "38": {
        "bias": 1.0418697595596313,
        "weights": {
          "0": -0.03577084839344025,
          "1": -1.190477967262268,
          "2": -0.5811364054679871,
          "3": 0.5071920156478882,
          "4": -0.5437418222427368,
          "5": -1.0015219449996948,
          "6": -0.779252290725708,
          "7": -0.3870651125907898,
          "8": -0.4898187220096588,
          "9": 0.5374565124511719,
          "10": 0.07041880488395691,
          "11": -1.2263686656951904,
          "12": -0.6876646280288696,
          "13": 0.47586923837661743,
          "14": -0.6106354594230652,
          "15": -0.9625267386436462,
          "16": -0.739043653011322,
          "17": -0.536669135093689,
          "18": -0.30950841307640076,
          "19": 0.7893993258476257
        }
      },
      "39": {
        "bias": 1.9736517667770386,
        "weights": {
          "0": 0.10522797703742981,
          "1": -3.301443338394165,
          "2": -2.7632224559783936,
          "3": -0.6520824432373047,
          "4": -0.16034305095672607,
          "5": 0.21951031684875488,
          "6": -0.013739320449531078,
          "7": -0.3718473017215729,
          "8": -0.08502348512411118,
          "9": 0.28630194067955017,
          "10": 0.13454581797122955,
          "11": -3.2335832118988037,
          "12": -2.5697274208068848,
          "13": -0.6684682369232178,
          "14": -0.4378398060798645,
          "15": -0.22407026588916779,
          "16": 0.19282494485378265,
          "17": -0.07035781443119049,
          "18": 0.026874516159296036,
          "19": -0.15615876019001007
        }
      },
      "40": {
        "bias": 0.5387710332870483,
        "weights": {
          "0": 0.03824330493807793,
          "1": 0.05446300655603409,
          "2": 0.016218163073062897,
          "3": 0.0125551987439394,
          "4": -0.004323475528508425,
          "5": 0.1564214527606964,
          "6": 0.08910118788480759,
          "7": 0.038161128759384155,
          "8": -9.137182235717773,
          "9": 5.9290571212768555,
          "10": -0.14663971960544586,
          "11": 0.08297359943389893,
          "12": -0.05418023839592934,
          "13": 0.008278635330498219,
          "14": 0.0518411323428154,
          "15": 0.08710378408432007,
          "16": -0.06322185695171356,
          "17": -0.03502747416496277,
          "18": -9.558109283447266,
          "19": 6.0389933586120605
        }
      },
      "41": {
        "bias": -4.293545246124268,
        "weights": {
          "0": 0.17985741794109344,
          "1": 0.6649441123008728,
          "2": 1.7497823238372803,
          "3": 1.9250677824020386,
          "4": 0.995318591594696,
          "5": 0.8053525686264038,
          "6": -2.4972150325775146,
          "7": -1.5422699451446533,
          "8": -0.34843480587005615,
          "9": -0.7651459574699402,
          "10": 0.07419382035732269,
          "11": 0.5865922570228577,
          "12": 1.6231411695480347,
          "13": 1.6771589517593384,
          "14": 0.7258496880531311,
          "15": 0.5307798385620117,
          "16": -2.720576524734497,
          "17": -1.6083154678344727,
          "18": -0.39923495054244995,
          "19": -0.6173970103263855
        }
      },
      "42": {
        "bias": 1.92132568359375,
        "weights": {
          "0": -0.12465357780456543,
          "1": -5.660511016845703,
          "2": -1.5194668769836426,
          "3": 0.5077843070030212,
          "4": 0.4892069101333618,
          "5": 0.42929816246032715,
          "6": 0.5176560282707214,
          "7": 0.3502115309238434,
          "8": 0.09309959411621094,
          "9": -0.030228111892938614,
          "10": 0.17883174121379852,
          "11": -5.902461528778076,
          "12": -1.3459415435791016,
          "13": -0.04355408996343613,
          "14": 0.45017215609550476,
          "15": 0.842095673084259,
          "16": 0.1823655515909195,
          "17": 0.05021902546286583,
          "18": 0.3224729895591736,
          "19": 0.024782869964838028
        }
      },
      "43": {
        "bias": 2.4034879207611084,
        "weights": {
          "0": 0.046020157635211945,
          "1": -2.6283206939697266,
          "2": -1.9799902439117432,
          "3": -0.9895468950271606,
          "4": -0.984123170375824,
          "5": -0.3065796196460724,
          "6": -0.29999759793281555,
          "7": -0.44153082370758057,
          "8": -0.050695888698101044,
          "9": -0.20924796164035797,
          "10": -0.18997670710086823,
          "11": -2.629361629486084,
          "12": -1.9843730926513672,
          "13": -0.8067035675048828,
          "14": -0.8380979895591736,
          "15": -0.4109555780887604,
          "16": -0.5727251768112183,
          "17": -0.1949089616537094,
          "18": -0.08302662521600723,
          "19": 0.18766608834266663
        }
      },
      "44": {
        "bias": 0.4969405233860016,
        "weights": {
          "0": -0.14383675158023834,
          "1": -1.2597185373306274,
          "2": -0.2713196873664856,
          "3": 0.6703229546546936,
          "4": 0.41191887855529785,
          "5": -0.21730056405067444,
          "6": -0.4768776297569275,
          "7": -2.133788824081421,
          "8": -0.5900473594665527,
          "9": -0.764162540435791,
          "10": 0.015208210796117783,
          "11": -1.1600890159606934,
          "12": -0.2797960638999939,
          "13": 0.7103870511054993,
          "14": 0.5249861478805542,
          "15": -0.08811414241790771,
          "16": -0.7090161442756653,
          "17": -2.016439914703369,
          "18": -0.6191544532775879,
          "19": -0.5395607352256775
        }
      },
      "45": {
        "bias": 2.0486717224121094,
        "weights": {
          "0": 0.17269377410411835,
          "1": -2.5190675258636475,
          "2": -1.5597712993621826,
          "3": -2.0882861614227295,
          "4": -0.2043299823999405,
          "5": -0.013940932229161263,
          "6": -0.08869922906160355,
          "7": 0.045510001480579376,
          "8": -0.3461826741695404,
          "9": 0.2181502878665924,
          "10": 0.09542681276798248,
          "11": -2.496868133544922,
          "12": -1.6808207035064697,
          "13": -1.9515292644500732,
          "14": 0.011796301230788231,
          "15": 0.04983711987733841,
          "16": -0.3271385431289673,
          "17": -0.25762537121772766,
          "18": -0.03446028754115105,
          "19": 0.6007381677627563
        }
      },
      "46": {
        "bias": 0.5449069142341614,
        "weights": {
          "0": 0.18860849738121033,
          "1": -0.9164789915084839,
          "2": -0.4702660143375397,
          "3": -0.5735974311828613,
          "4": -1.1462379693984985,
          "5": 0.4909861385822296,
          "6": -0.4979149401187897,
          "7": 0.22624820470809937,
          "8": -0.47398611903190613,
          "9": -0.4622238576412201,
          "10": -0.04842226207256317,
          "11": -0.6576092839241028,
          "12": -0.33609193563461304,
          "13": -0.34618237614631653,
          "14": -1.0519720315933228,
          "15": -0.5203182101249695,
          "16": -0.11980506032705307,
          "17": -0.347983181476593,
          "18": 0.21625635027885437,
          "19": -0.034108057618141174
        }
      },
      "47": {
        "bias": 1.2588903903961182,
        "weights": {
          "0": 0.08011329174041748,
          "1": -2.447916030883789,
          "2": -2.2341468334198,
          "3": -0.2835089862346649,
          "4": -0.9446171522140503,
          "5": -0.7443882822990417,
          "6": 0.39001134037971497,
          "7": 0.38695088028907776,
          "8": 0.12938278913497925,
          "9": -0.35609057545661926,
          "10": -0.08211163431406021,
          "11": -2.4016480445861816,
          "12": -2.224050283432007,
          "13": -0.244081050157547,
          "14": -0.9654108285903931,
          "15": -0.7101609110832214,
          "16": 0.3332039415836334,
          "17": 0.25309425592422485,
          "18": 0.01115383580327034,
          "19": -0.18745946884155273
        }
      },
      "48": {
        "bias": -2.965808153152466,
        "weights": {
          "0": 0.14601343870162964,
          "1": 1.6178996562957764,
          "2": 0.4190469980239868,
          "3": -0.7335995435714722,
          "4": -0.40167078375816345,
          "5": -0.1289035677909851,
          "6": -0.5890843272209167,
          "7": -0.26736685633659363,
          "8": -0.07942699640989304,
          "9": 0.37207403779029846,
          "10": 0.1755887120962143,
          "11": 1.7454524040222168,
          "12": 0.43543049693107605,
          "13": -0.709295928478241,
          "14": -0.18840357661247253,
          "15": -0.30749276280403137,
          "16": -0.5495525598526001,
          "17": -0.28148895502090454,
          "18": -0.014019371010363102,
          "19": 0.19929537177085876
        }
      },
      "49": {
        "bias": -0.5589108467102051,
        "weights": {
          "0": -0.09092895686626434,
          "1": -0.3543771207332611,
          "2": -0.3671809136867523,
          "3": -0.3512905538082123,
          "4": -0.2650619149208069,
          "5": -0.09191125631332397,
          "6": -0.3606127202510834,
          "7": -0.26716846227645874,
          "8": 3.6228299140930176,
          "9": 2.513211488723755,
          "10": 0.16103243827819824,
          "11": -0.3157305121421814,
          "12": -0.2460276037454605,
          "13": -0.3319869041442871,
          "14": -0.3242642879486084,
          "15": -0.09127930551767349,
          "16": -0.6058773994445801,
          "17": -0.2626765966415405,
          "18": -4.872915267944336,
          "19": 2.642117977142334
        }
      },
      "50": {
        "bias": 0.326145201921463,
        "weights": {
          "0": 0.017049340531229973,
          "1": -0.807121753692627,
          "2": -0.46676021814346313,
          "3": -0.5461249947547913,
          "4": -0.9876121878623962,
          "5": -0.32714635133743286,
          "6": -0.1181323379278183,
          "7": -0.9972308874130249,
          "8": -0.5856482982635498,
          "9": 0.09751684218645096,
          "10": -0.0437886081635952,
          "11": -0.7861340045928955,
          "12": -0.7926750779151917,
          "13": -0.2941819429397583,
          "14": -1.088874340057373,
          "15": -0.5977141857147217,
          "16": 0.1444261223077774,
          "17": 1.037445306777954,
          "18": 0.05901752784848213,
          "19": -0.2647337019443512
        }
      },
      "51": {
        "bias": 1.8975619077682495,
        "weights": {
          "0": 0.09229261428117752,
          "1": -0.5052043199539185,
          "2": -0.2482769936323166,
          "3": -0.7753947377204895,
          "4": 0.33176106214523315,
          "5": 0.5819728970527649,
          "6": -0.7978270649909973,
          "7": -1.4732705354690552,
          "8": 0.469197154045105,
          "9": 0.44818177819252014,
          "10": -0.1535903811454773,
          "11": -0.6504256725311279,
          "12": -0.4564206302165985,
          "13": -0.7836796641349792,
          "14": 0.29097071290016174,
          "15": 0.762895405292511,
          "16": -0.46562573313713074,
          "17": -1.4833027124404907,
          "18": 0.8408141732215881,
          "19": 0.18201285600662231
        }
      },
      "52": {
        "bias": 2.771237373352051,
        "weights": {
          "0": -0.06125800311565399,
          "1": -4.201017379760742,
          "2": -3.0087385177612305,
          "3": -1.1020228862762451,
          "4": 0.27566230297088623,
          "5": 0.7997296452522278,
          "6": -0.3586486577987671,
          "7": 0.07318943738937378,
          "8": -0.6430952548980713,
          "9": -0.02217145636677742,
          "10": -0.06744387745857239,
          "11": -4.343716621398926,
          "12": -2.430246114730835,
          "13": -0.5295724272727966,
          "14": 0.8666343688964844,
          "15": 0.44633176922798157,
          "16": -1.5818915367126465,
          "17": -1.1562011241912842,
          "18": -0.7149059772491455,
          "19": 0.7227842211723328
        }
      },
      "53": {
        "bias": -3.947169303894043,
        "weights": {
          "0": -0.07952991873025894,
          "1": 1.9843356609344482,
          "2": 1.147796869277954,
          "3": 1.7819167375564575,
          "4": -2.8708276748657227,
          "5": -2.2352166175842285,
          "6": -0.2693331241607666,
          "7": 1.005387783050537,
          "8": 0.413181334733963,
          "9": 0.6437367796897888,
          "10": -0.07464677840471268,
          "11": 1.9499458074569702,
          "12": 1.413098931312561,
          "13": 1.5813114643096924,
          "14": -3.502767562866211,
          "15": -1.8666222095489502,
          "16": 0.1477455496788025,
          "17": -0.05053318291902542,
          "18": -0.21955648064613342,
          "19": 0.21440932154655457
        }
      },
      "54": {
        "bias": -8.055800437927246,
        "weights": {
          "0": -0.051846444606781006,
          "1": -0.234505757689476,
          "2": -0.023034054785966873,
          "3": 0.13202954828739166,
          "4": 2.6505415439605713,
          "5": 3.470984697341919,
          "6": -0.5519793629646301,
          "7": -0.033370718359947205,
          "8": -0.7397634387016296,
          "9": 0.35661813616752625,
          "10": -0.18684230744838715,
          "11": -0.218565434217453,
          "12": 0.03329357132315636,
          "13": 0.12631691992282867,
          "14": 2.7571520805358887,
          "15": 3.6281540393829346,
          "16": -0.36007994413375854,
          "17": -0.10905617475509644,
          "18": -0.646975040435791,
          "19": 0.33148282766342163
        }
      },
      "55": {
        "bias": 1.284037709236145,
        "weights": {
          "0": 0.080814890563488,
          "1": -0.7055244445800781,
          "2": -0.0180791225284338,
          "3": -0.6315443515777588,
          "4": -1.4587901830673218,
          "5": 0.29904744029045105,
          "6": -0.4470171332359314,
          "7": 0.4984070956707001,
          "8": -0.8421524167060852,
          "9": -0.23737391829490662,
          "10": 0.06439473479986191,
          "11": -0.6130735874176025,
          "12": -0.11307892948389053,
          "13": -0.8012959361076355,
          "14": -1.3226814270019531,
          "15": 0.2694369852542877,
          "16": -0.6385806798934937,
          "17": -0.613095223903656,
          "18": 0.3477039933204651,
          "19": -0.23893260955810547
        }
      },
      "56": {
        "bias": 2.4051499366760254,
        "weights": {
          "0": -0.028016669675707817,
          "1": -2.7300057411193848,
          "2": -2.102699041366577,
          "3": -1.1394802331924438,
          "4": -1.01337730884552,
          "5": -0.8778499960899353,
          "6": -0.1671389490365982,
          "7": -0.4128689467906952,
          "8": -0.10690661519765854,
          "9": -0.1558651179075241,
          "10": -0.028268542140722275,
          "11": -2.927424430847168,
          "12": -1.803230881690979,
          "13": -0.7319809198379517,
          "14": -0.7557870745658875,
          "15": -0.5944920182228088,
          "16": -0.008998342789709568,
          "17": -0.11253956705331802,
          "18": -0.12854832410812378,
          "19": 0.0037890004459768534
        }
      },
      "57": {
        "bias": 1.0769010782241821,
        "weights": {
          "0": -0.15679004788398743,
          "1": -0.8375571370124817,
          "2": -0.2797878384590149,
          "3": -0.3493632674217224,
          "4": -0.7039707899093628,
          "5": 0.5941042900085449,
          "6": -0.43443557620048523,
          "7": -0.5497070550918579,
          "8": 0.07978291809558868,
          "9": -0.04101044684648514,
          "10": -0.16730383038520813,
          "11": -0.9244721531867981,
          "12": -0.49717965722084045,
          "13": -0.35048606991767883,
          "14": -0.8624138236045837,
          "15": 0.04630478471517563,
          "16": -0.6946190595626831,
          "17": 0.11633604764938354,
          "18": -0.35137316584587097,
          "19": -0.4682505428791046
        }
      },
      "58": {
        "bias": -11.313133239746094,
        "weights": {
          "0": -0.1477050930261612,
          "1": -0.42445921897888184,
          "2": -0.443209171295166,
          "3": 6.881504535675049,
          "4": 3.2957708835601807,
          "5": 1.8259978294372559,
          "6": 0.4291461706161499,
          "7": -0.050805773586034775,
          "8": 0.00450398214161396,
          "9": 0.5916581153869629,
          "10": -0.0002835516643244773,
          "11": -0.1554669588804245,
          "12": -0.2572639286518097,
          "13": 6.929844379425049,
          "14": 3.321993112564087,
          "15": 1.2209887504577637,
          "16": 0.9168171286582947,
          "17": -0.12841273844242096,
          "18": 0.04306388646364212,
          "19": -0.2241208702325821
        }
      },
      "59": {
        "bias": 0.5759923458099365,
        "weights": {
          "0": -0.08396966010332108,
          "1": -0.1266634166240692,
          "2": 0.028249351307749748,
          "3": -0.48302629590034485,
          "4": -0.7467464208602905,
          "5": -0.6172220706939697,
          "6": -0.7201201319694519,
          "7": -0.5125919580459595,
          "8": 0.19291463494300842,
          "9": 0.8536233305931091,
          "10": -0.16996315121650696,
          "11": 0.14856965839862823,
          "12": -0.2007339596748352,
          "13": -0.3995334506034851,
          "14": -0.6973910331726074,
          "15": -0.5626024603843689,
          "16": -0.5462647676467896,
          "17": -0.10061726719141006,
          "18": -0.09937649965286255,
          "19": -0.8291733860969543
        }
      },
      "60": {
        "bias": 3.22151780128479,
        "weights": {
          "0": 0.0009519634186290205,
          "1": -3.7592830657958984,
          "2": -2.5798516273498535,
          "3": -0.9755092263221741,
          "4": -0.122775137424469,
          "5": -0.5037419199943542,
          "6": 0.3034989535808563,
          "7": 0.4443608224391937,
          "8": 0.28338366746902466,
          "9": -0.02329886518418789,
          "10": 0.031088508665561676,
          "11": -3.9251911640167236,
          "12": -2.5090584754943848,
          "13": -0.9717246890068054,
          "14": -0.4627518653869629,
          "15": -0.7469191551208496,
          "16": 0.19042065739631653,
          "17": 0.4579955041408539,
          "18": 0.6969653367996216,
          "19": -0.1461184024810791
        }
      },
      "61": {
        "bias": 0.9541363716125488,
        "weights": {
          "0": 0.13417653739452362,
          "1": -0.16571135818958282,
          "2": -0.30357035994529724,
          "3": -0.8295072317123413,
          "4": -1.3139305114746094,
          "5": -0.03852534666657448,
          "6": -0.40843239426612854,
          "7": -0.31715643405914307,
          "8": 0.1779366284608841,
          "9": -0.8236068487167358,
          "10": 0.038355521857738495,
          "11": -0.11411544680595398,
          "12": 0.07336466014385223,
          "13": -0.7658585906028748,
          "14": -0.9941291809082031,
          "15": -0.7904201149940491,
          "16": -0.4881729483604431,
          "17": 0.29510101675987244,
          "18": -0.10270234942436218,
          "19": 0.2459173947572708
        }
      },
      "62": {
        "bias": 0.5491650700569153,
        "weights": {
          "0": 0.06244190037250519,
          "1": -0.646124005317688,
          "2": -0.708449125289917,
          "3": -0.07549557834863663,
          "4": -0.6682202816009521,
          "5": -0.8268852829933167,
          "6": -0.37945467233657837,
          "7": -0.28571268916130066,
          "8": 0.24869289994239807,
          "9": -0.5944060683250427,
          "10": -0.07361236959695816,
          "11": -0.5139566659927368,
          "12": -0.695722222328186,
          "13": 0.015559113584458828,
          "14": -0.8269993662834167,
          "15": -0.5231286883354187,
          "16": -0.12200022488832474,
          "17": 0.3346126973628998,
          "18": -0.32127901911735535,
          "19": 0.23850181698799133
        }
      },
      "63": {
        "bias": 1.3438787460327148,
        "weights": {
          "0": 0.11329048126935959,
          "1": -2.9282455444335938,
          "2": -2.7660272121429443,
          "3": -0.27835720777511597,
          "4": 0.5663488507270813,
          "5": -0.020124992355704308,
          "6": -0.043600454926490784,
          "7": 0.07307900488376617,
          "8": -0.19686934351921082,
          "9": 0.02521314099431038,
          "10": -0.06954232603311539,
          "11": -3.179258108139038,
          "12": -2.958284378051758,
          "13": -0.36168336868286133,
          "14": 0.3399083614349365,
          "15": -0.23910659551620483,
          "16": 0.03890347480773926,
          "17": -0.1471807211637497,
          "18": -0.04048241674900055,
          "19": -0.017803898081183434
        }
      },
      "64": {
        "bias": -0.599137008190155,
        "weights": {
          "0": 0.013635453768074512,
          "1": -1.8576626777648926,
          "2": -2.048430919647217,
          "3": -0.6104369163513184,
          "4": 0.4370401203632355,
          "5": 0.6441676616668701,
          "6": 1.0568809509277344,
          "7": 0.6030201315879822,
          "8": 0.19742946326732635,
          "9": -1.0385797023773193,
          "10": -0.01471310667693615,
          "11": -1.9727342128753662,
          "12": -2.0859296321868896,
          "13": -0.5713685154914856,
          "14": 0.09248090535402298,
          "15": 0.6448389887809753,
          "16": 1.0158530473709106,
          "17": 0.5944212675094604,
          "18": 0.2567107081413269,
          "19": -0.9309183359146118
        }
      },
      "65": {
        "bias": 2.0082497596740723,
        "weights": {
          "0": -0.19096136093139648,
          "1": -2.905961275100708,
          "2": -1.9431071281433105,
          "3": -1.9263275861740112,
          "4": 0.6289781928062439,
          "5": 0.07185348123311996,
          "6": -0.34970104694366455,
          "7": -0.3740054965019226,
          "8": -0.3092632293701172,
          "9": -0.06537846475839615,
          "10": -0.07998589426279068,
          "11": -3.003915309906006,
          "12": -1.8278875350952148,
          "13": -1.9333018064498901,
          "14": 0.37627461552619934,
          "15": 0.012177110649645329,
          "16": -0.10786301642656326,
          "17": -0.2599979639053345,
          "18": -0.03179808333516121,
          "19": 0.22678092122077942
        }
      },
      "66": {
        "bias": -2.7697441577911377,
        "weights": {
          "0": 0.08579086512327194,
          "1": 1.714444875717163,
          "2": 0.19363145530223846,
          "3": -0.8321475386619568,
          "4": -0.5920277833938599,
          "5": -0.11528672277927399,
          "6": -0.46222761273384094,
          "7": -0.23050810396671295,
          "8": -0.03515760600566864,
          "9": 0.014671064913272858,
          "10": 0.0804222822189331,
          "11": 1.9159311056137085,
          "12": 0.25971412658691406,
          "13": -0.6579379439353943,
          "14": -0.5213986039161682,
          "15": -0.17168065905570984,
          "16": -0.5850518345832825,
          "17": -0.3538348078727722,
          "18": -0.03312752768397331,
          "19": 0.19421075284481049
        }
      },
      "67": {
        "bias": 1.3080220222473145,
        "weights": {
          "0": 0.07138945162296295,
          "1": -3.686143636703491,
          "2": -2.8853018283843994,
          "3": -0.8782021403312683,
          "4": 0.9105106592178345,
          "5": 0.2804635167121887,
          "6": -0.17827995121479034,
          "7": -0.18557168543338776,
          "8": -0.15546436607837677,
          "9": 0.09455015510320663,
          "10": 0.0962318405508995,
          "11": -3.7163350582122803,
          "12": -2.8021750450134277,
          "13": -0.8080186247825623,
          "14": 0.6515568494796753,
          "15": 0.27295058965682983,
          "16": 0.0008533811196684837,
          "17": -0.3908408284187317,
          "18": -0.35754910111427307,
          "19": 0.15055248141288757
        }
      },
      "68": {
        "bias": -0.5627086162567139,
        "weights": {
          "0": -0.1400700956583023,
          "1": 2.0164794921875,
          "2": -1.4495750665664673,
          "3": -1.968334674835205,
          "4": -1.2530807256698608,
          "5": -0.4817706048488617,
          "6": -0.21433694660663605,
          "7": 0.02933032438158989,
          "8": -0.31299346685409546,
          "9": 0.07024452090263367,
          "10": -0.07680581510066986,
          "11": 1.8578375577926636,
          "12": -1.2068276405334473,
          "13": -2.2060067653656006,
          "14": -1.3906084299087524,
          "15": -0.3140626847743988,
          "16": -0.23348954319953918,
          "17": -0.31888777017593384,
          "18": -0.040640346705913544,
          "19": -0.3040817975997925
        }
      },
      "69": {
        "bias": -2.69392466545105,
        "weights": {
          "0": -0.00006467181083280593,
          "1": -0.7772859930992126,
          "2": -1.4974148273468018,
          "3": 0.6323386430740356,
          "4": 2.241455316543579,
          "5": 1.2242375612258911,
          "6": 0.020635100081562996,
          "7": 0.09264569729566574,
          "8": -0.8972017765045166,
          "9": -1.0466535091400146,
          "10": -0.06006477028131485,
          "11": -0.6374050974845886,
          "12": -1.5600717067718506,
          "13": 0.5637586712837219,
          "14": 2.5536439418792725,
          "15": 1.6399117708206177,
          "16": -0.13144010305404663,
          "17": 0.08285140246152878,
          "18": -0.76298987865448,
          "19": -1.1026979684829712
        }
      },
      "70": {
        "bias": 0.2660408020019531,
        "weights": {
          "0": 0.008336403407156467,
          "1": -0.6804904341697693,
          "2": -0.5551692843437195,
          "3": -0.6447168588638306,
          "4": -0.3372977077960968,
          "5": -0.06162318214774132,
          "6": 0.11699322611093521,
          "7": -0.16486221551895142,
          "8": -0.07005422562360764,
          "9": -0.5784221291542053,
          "10": 0.15155725181102753,
          "11": -0.9388889670372009,
          "12": -0.8879614472389221,
          "13": -0.662466824054718,
          "14": -0.4753747284412384,
          "15": 0.057328350841999054,
          "16": 0.06629110872745514,
          "17": 0.35609713196754456,
          "18": -0.0032522613182663918,
          "19": -0.6422836780548096
        }
      },
      "71": {
        "bias": -5.1018967628479,
        "weights": {
          "0": 0.14594754576683044,
          "1": -0.2808399498462677,
          "2": 0.9981979727745056,
          "3": -0.14047038555145264,
          "4": 2.9527063369750977,
          "5": 1.4969340562820435,
          "6": 0.9165760278701782,
          "7": 0.011292967945337296,
          "8": -0.13721157610416412,
          "9": -1.7714834213256836,
          "10": 0.08531472831964493,
          "11": -0.2815355658531189,
          "12": 0.950884997844696,
          "13": -0.2033635377883911,
          "14": 3.2253828048706055,
          "15": 1.7802069187164307,
          "16": 0.861584484577179,
          "17": 0.207624152302742,
          "18": 0.12521766126155853,
          "19": -1.5326796770095825
        }
      },
      "72": {
        "bias": 1.5049331188201904,
        "weights": {
          "0": -0.1798560619354248,
          "1": -1.9911381006240845,
          "2": -1.9435770511627197,
          "3": -0.8117149472236633,
          "4": -0.9787964820861816,
          "5": -0.7358970642089844,
          "6": 0.3046051263809204,
          "7": 0.13036026060581207,
          "8": 0.326665461063385,
          "9": 0.8023176789283752,
          "10": -0.025050003081560135,
          "11": -2.170591354370117,
          "12": -1.9806751012802124,
          "13": -0.7696135640144348,
          "14": -0.7486314177513123,
          "15": -0.6520525813102722,
          "16": 0.24140751361846924,
          "17": 0.10918771475553513,
          "18": 0.12816354632377625,
          "19": 0.5547299981117249
        }
      },
      "73": {
        "bias": 0.08719491958618164,
        "weights": {
          "0": 0.0929582417011261,
          "1": -2.0142226219177246,
          "2": -0.9507899880409241,
          "3": 0.27029183506965637,
          "4": 0.5576739311218262,
          "5": 0.5614528059959412,
          "6": 0.11025432497262955,
          "7": 0.060017239302396774,
          "8": -0.37665826082229614,
          "9": -1.2267950773239136,
          "10": 0.1473710834980011,
          "11": -2.0344178676605225,
          "12": -0.98236083984375,
          "13": 0.2920711934566498,
          "14": 0.608432948589325,
          "15": 0.42538928985595703,
          "16": -0.19792214035987854,
          "17": -0.06188090518116951,
          "18": -0.22154229879379272,
          "19": -1.3944284915924072
        }
      },
      "74": {
        "bias": -5.238814830780029,
        "weights": {
          "0": -0.19908717274665833,
          "1": 1.133051872253418,
          "2": 0.102430559694767,
          "3": -0.8582085967063904,
          "4": -0.23999454081058502,
          "5": -0.35381782054901123,
          "6": 1.1487239599227905,
          "7": 1.15802800655365,
          "8": 0.5877590775489807,
          "9": 0.49071499705314636,
          "10": 0.1572490781545639,
          "11": 1.0565519332885742,
          "12": -0.016554133966565132,
          "13": -0.5814763903617859,
          "14": -0.28410813212394714,
          "15": -0.25985267758369446,
          "16": 1.1133290529251099,
          "17": 1.4710118770599365,
          "18": 0.5729007720947266,
          "19": 0.34289541840553284
        }
      },
      "75": {
        "bias": -11.061522483825684,
        "weights": {
          "0": -0.13824455440044403,
          "1": -0.10572854429483414,
          "2": 0.05957379937171936,
          "3": 0.14468371868133545,
          "4": 0.8420357704162598,
          "5": 1.4328891038894653,
          "6": 2.555466890335083,
          "7": 1.3419244289398193,
          "8": 0.6921369433403015,
          "9": 0.2599737048149109,
          "10": 0.0823950469493866,
          "11": -0.086513951420784,
          "12": 0.14092248678207397,
          "13": -0.023448633030056953,
          "14": 0.8190324902534485,
          "15": 1.5030218362808228,
          "16": 3.0231597423553467,
          "17": 1.376784324645996,
          "18": 0.6259960532188416,
          "19": 0.21757173538208008
        }
      },
      "76": {
        "bias": -1.4251072406768799,
        "weights": {
          "0": -0.033321596682071686,
          "1": 0.43808165192604065,
          "2": 1.1707568168640137,
          "3": -1.8629194498062134,
          "4": -0.7105396389961243,
          "5": -0.12348078936338425,
          "6": 0.7417201399803162,
          "7": 0.7145142555236816,
          "8": 0.38982272148132324,
          "9": -0.8475267887115479,
          "10": -0.10234425961971283,
          "11": 0.29092636704444885,
          "12": 1.3826075792312622,
          "13": -1.8263095617294312,
          "14": -0.3066888153553009,
          "15": 0.13412396609783173,
          "16": 1.0703258514404297,
          "17": 0.9974073767662048,
          "18": 0.5257905721664429,
          "19": -1.3961436748504639
        }
      },
      "77": {
        "bias": -5.3700079917907715,
        "weights": {
          "0": -0.11516620218753815,
          "1": 1.1322047710418701,
          "2": 0.6211020350456238,
          "3": 6.086823463439941,
          "4": 1.10801100730896,
          "5": 0.20976808667182922,
          "6": 0.32696688175201416,
          "7": 0.07001297175884247,
          "8": -0.3078294098377228,
          "9": -0.053725745528936386,
          "10": -0.1354130059480667,
          "11": 0.960426390171051,
          "12": 0.6713221669197083,
          "13": 5.666303634643555,
          "14": 1.07875657081604,
          "15": 0.03534553945064545,
          "16": 0.03257524222135544,
          "17": 0.09077620506286621,
          "18": -0.31842830777168274,
          "19": 0.09563643485307693
        }
      },
      "78": {
        "bias": -2.8691842555999756,
        "weights": {
          "0": -0.08225192874670029,
          "1": 2.480365753173828,
          "2": 0.7634788155555725,
          "3": -0.6160016059875488,
          "4": -1.1722207069396973,
          "5": -0.15250851213932037,
          "6": -0.4945336580276489,
          "7": -0.4657938480377197,
          "8": -0.15273012220859528,
          "9": 0.15697278082370758,
          "10": -0.16762156784534454,
          "11": 2.25639271736145,
          "12": 0.5300232768058777,
          "13": -0.6868406534194946,
          "14": -1.0483466386795044,
          "15": -0.27603769302368164,
          "16": -0.8462539315223694,
          "17": -0.3901694118976593,
          "18": -0.11095224320888519,
          "19": -0.12057425826787949
        }
      },
      "79": {
        "bias": 0.45587408542633057,
        "weights": {
          "0": 0.021572789177298546,
          "1": -0.4418550431728363,
          "2": 0.09293246269226074,
          "3": -0.3863702118396759,
          "4": -0.07147520780563354,
          "5": -0.5222679376602173,
          "6": -0.34299057722091675,
          "7": -0.5743523836135864,
          "8": 0.35314831137657166,
          "9": 0.37613213062286377,
          "10": -0.1251285821199417,
          "11": -0.5108963847160339,
          "12": -0.11969130486249924,
          "13": -0.19949576258659363,
          "14": -0.594853401184082,
          "15": -0.6178376078605652,
          "16": 0.2742929756641388,
          "17": 0.1205969899892807,
          "18": -0.9853335618972778,
          "19": -0.8384695053100586
        }
      },
      "80": {
        "bias": 0.9301926493644714,
        "weights": {
          "0": 0.09589890390634537,
          "1": -2.987443685531616,
          "2": -1.698869228363037,
          "3": -0.3838094472885132,
          "4": 0.2540263235569,
          "5": 0.14368900656700134,
          "6": -0.1899651437997818,
          "7": -0.3212043046951294,
          "8": -0.18675562739372253,
          "9": -0.5968246459960938,
          "10": 0.11402063816785812,
          "11": -2.9185523986816406,
          "12": -1.621741533279419,
          "13": -0.40200120210647583,
          "14": 0.05529288202524185,
          "15": -0.17554216086864471,
          "16": -0.3008004426956177,
          "17": -0.2278786301612854,
          "18": 0.08482087403535843,
          "19": -0.44079530239105225
        }
      },
      "81": {
        "bias": 0.5294376015663147,
        "weights": {
          "0": 0.15858611464500427,
          "1": -2.1017580032348633,
          "2": -1.3984804153442383,
          "3": -0.37573686242103577,
          "4": 0.46696770191192627,
          "5": -0.22565679252147675,
          "6": -0.10752958804368973,
          "7": -0.24110724031925201,
          "8": -0.1255521923303604,
          "9": -0.16698890924453735,
          "10": 0.003040509996935725,
          "11": -2.229661226272583,
          "12": -1.5139189958572388,
          "13": -0.41268759965896606,
          "14": 0.13586299121379852,
          "15": -0.15617793798446655,
          "16": -0.18478362262248993,
          "17": -0.2490261197090149,
          "18": 0.06447610259056091,
          "19": -0.1684580296278
        }
      },
      "82": {
        "bias": -5.405933380126953,
        "weights": {
          "0": -0.06598253548145294,
          "1": 2.6645846366882324,
          "2": 1.0373084545135498,
          "3": 0.8650367856025696,
          "4": 1.917710542678833,
          "5": 0.13738206028938293,
          "6": -1.0389351844787598,
          "7": -0.9768564701080322,
          "8": -0.9706783890724182,
          "9": 0.3772086203098297,
          "10": 0.1380937099456787,
          "11": 2.203867197036743,
          "12": 1.0946393013000488,
          "13": 1.0649274587631226,
          "14": 1.4599626064300537,
          "15": 0.053622812032699585,
          "16": -1.1699857711791992,
          "17": -0.8708032369613647,
          "18": -1.133804202079773,
          "19": 0.17857061326503754
        }
      },
      "83": {
        "bias": -2.5316715240478516,
        "weights": {
          "0": -0.06511202454566956,
          "1": 0.9794585108757019,
          "2": 1.3445712327957153,
          "3": 2.1756582260131836,
          "4": -2.5932185649871826,
          "5": -1.9894920587539673,
          "6": -0.7543790936470032,
          "7": -0.0988718569278717,
          "8": 0.17575006186962128,
          "9": 0.0010881677735596895,
          "10": 0.14865796267986298,
          "11": 1.0200122594833374,
          "12": 0.9432795643806458,
          "13": 2.061652898788452,
          "14": -2.73820424079895,
          "15": -1.841498851776123,
          "16": -0.2442292869091034,
          "17": -0.11224645376205444,
          "18": -0.4662226140499115,
          "19": -0.5279055833816528
        }
      },
      "84": {
        "bias": 0.9467058181762695,
        "weights": {
          "0": -0.01655377633869648,
          "1": 0.1789097636938095,
          "2": -0.0683901384472847,
          "3": -0.029944341629743576,
          "4": -0.691279947757721,
          "5": -0.7094749212265015,
          "6": -0.6891276240348816,
          "7": 0.03679896518588066,
          "8": -1.926657795906067,
          "9": 1.365046501159668,
          "10": -0.0683564692735672,
          "11": 0.06777004897594452,
          "12": -0.16846449673175812,
          "13": -0.43200618028640747,
          "14": -0.3637916147708893,
          "15": -0.5945952534675598,
          "16": -0.8645986318588257,
          "17": -0.049360282719135284,
          "18": 0.7136296629905701,
          "19": 0.553581714630127
        }
      },
      "85": {
        "bias": -2.4003143310546875,
        "weights": {
          "0": 0.0681765228509903,
          "1": 1.7295124530792236,
          "2": 0.7267507314682007,
          "3": 0.5582777857780457,
          "4": -2.077409505844116,
          "5": -0.4733358323574066,
          "6": -0.7321345210075378,
          "7": -0.3798980116844177,
          "8": -0.273134708404541,
          "9": 0.7486909031867981,
          "10": -0.08955611288547516,
          "11": 1.3927414417266846,
          "12": 0.4027639925479889,
          "13": 0.5047872066497803,
          "14": -2.2304773330688477,
          "15": -0.4659910202026367,
          "16": -0.7101064920425415,
          "17": -0.2305542230606079,
          "18": -0.7585644721984863,
          "19": 0.595992386341095
        }
      },
      "86": {
        "bias": -3.187351703643799,
        "weights": {
          "0": 0.04572668671607971,
          "1": 2.7386155128479004,
          "2": -0.6396417021751404,
          "3": -1.0326192378997803,
          "4": -0.006042610853910446,
          "5": 0.0013435044093057513,
          "6": 0.2972029745578766,
          "7": 0.11250113695859909,
          "8": -0.01132376678287983,
          "9": -0.21202459931373596,
          "10": 0.19762080907821655,
          "11": 2.539045572280884,
          "12": -0.7097541093826294,
          "13": -1.1862255334854126,
          "14": 0.2568223178386688,
          "15": -0.21863959729671478,
          "16": 0.28030604124069214,
          "17": 0.16451284289360046,
          "18": -0.011025482788681984,
          "19": -0.3043808937072754
        }
      },
      "87": {
        "bias": -5.108152866363525,
        "weights": {
          "0": 0.06975167244672775,
          "1": 3.5655133724212646,
          "2": -0.47888508439064026,
          "3": 0.04716862738132477,
          "4": 0.4091569781303406,
          "5": -0.729195773601532,
          "6": -0.025589369237422943,
          "7": 0.5238226056098938,
          "8": 0.13189087808132172,
          "9": -0.6316617131233215,
          "10": -0.0064799608662724495,
          "11": 3.5620031356811523,
          "12": 0.05397048592567444,
          "13": 0.10690130293369293,
          "14": -0.03019857220351696,
          "15": -0.7019266486167908,
          "16": 0.4149262011051178,
          "17": 0.7035292387008667,
          "18": 0.2951929271221161,
          "19": -0.33222121000289917
        }
      },
      "88": {
        "bias": -0.5764948725700378,
        "weights": {
          "0": -0.07042466849088669,
          "1": 1.7238651514053345,
          "2": -1.2864232063293457,
          "3": -0.9194965362548828,
          "4": -0.7978413105010986,
          "5": -0.28827428817749023,
          "6": -0.3523663282394409,
          "7": 0.16064634919166565,
          "8": -0.16557961702346802,
          "9": -0.6308123469352722,
          "10": -0.0383189432322979,
          "11": 1.510095477104187,
          "12": -1.2064979076385498,
          "13": -1.1318312883377075,
          "14": -0.7285074591636658,
          "15": -0.2333480417728424,
          "16": -0.1770247370004654,
          "17": -0.2737542986869812,
          "18": 0.11762446910142899,
          "19": -0.6190216541290283
        }
      },
      "89": {
        "bias": 3.3176965713500977,
        "weights": {
          "0": -0.178170844912529,
          "1": -3.892129898071289,
          "2": -2.072299003601074,
          "3": -0.2904205620288849,
          "4": -0.8608052134513855,
          "5": -0.7230529189109802,
          "6": -0.9478247761726379,
          "7": -0.20650017261505127,
          "8": 0.09073399007320404,
          "9": -0.16765157878398895,
          "10": -0.03981543704867363,
          "11": -3.3522167205810547,
          "12": -2.2744596004486084,
          "13": -0.624541699886322,
          "14": -0.17175328731536865,
          "15": -0.6600304245948792,
          "16": -1.376118779182434,
          "17": -0.6476839780807495,
          "18": -0.8011714816093445,
          "19": -0.434844046831131
        }
      },
      "90": {
        "bias": 0.19748534262180328,
        "weights": {
          "0": 0.049452029168605804,
          "1": -0.43488386273384094,
          "2": 0.024659713730216026,
          "3": 0.23978783190250397,
          "4": -0.5442707538604736,
          "5": -0.7591189742088318,
          "6": 0.07812324166297913,
          "7": 0.11806684732437134,
          "8": 0.44178515672683716,
          "9": -1.171518325805664,
          "10": 0.034318502992391586,
          "11": -0.49420085549354553,
          "12": 0.11897552013397217,
          "13": -0.0989886075258255,
          "14": -0.48007145524024963,
          "15": -0.8263869285583496,
          "16": -0.7274772524833679,
          "17": 0.06726057827472687,
          "18": -0.3374238610267639,
          "19": 0.5057081580162048
        }
      },
      "91": {
        "bias": 0.29291877150535583,
        "weights": {
          "0": -0.06200811639428139,
          "1": -0.1048336997628212,
          "2": -0.6287006735801697,
          "3": -1.5943011045455933,
          "4": -0.35307881236076355,
          "5": 0.4584645926952362,
          "6": 0.7752402424812317,
          "7": 0.6334685683250427,
          "8": -0.3164783716201782,
          "9": -0.3037227988243103,
          "10": 0.06887999176979065,
          "11": -0.05306839570403099,
          "12": -0.6618002653121948,
          "13": -1.633911371231079,
          "14": -0.28385722637176514,
          "15": -0.04890671744942665,
          "16": 1.4644213914871216,
          "17": 0.13364006578922272,
          "18": -0.1289617121219635,
          "19": -0.2104116529226303
        }
      },
      "92": {
        "bias": 2.4528968334198,
        "weights": {
          "0": 0.12059024721384048,
          "1": -1.5497214794158936,
          "2": -0.9202407002449036,
          "3": -1.058866024017334,
          "4": -1.3094439506530762,
          "5": -0.40712618827819824,
          "6": -0.5603302717208862,
          "7": -0.3271692991256714,
          "8": -0.27865347266197205,
          "9": -0.433701753616333,
          "10": -0.0834406241774559,
          "11": -1.92270028591156,
          "12": -1.1629174947738647,
          "13": -0.6476171016693115,
          "14": -1.232081413269043,
          "15": -0.09574729949235916,
          "16": -0.6781251430511475,
          "17": -0.3320058584213257,
          "18": 0.2975510060787201,
          "19": 0.7218055725097656
        }
      },
      "93": {
        "bias": -3.4731297492980957,
        "weights": {
          "0": -0.09628807753324509,
          "1": 0.797136127948761,
          "2": 0.8973992466926575,
          "3": 3.79140305519104,
          "4": -2.6516947746276855,
          "5": -1.1063069105148315,
          "6": -0.7324533462524414,
          "7": -0.3454333245754242,
          "8": -0.41866710782051086,
          "9": 0.2919817864894867,
          "10": 0.19724321365356445,
          "11": 0.44940248131752014,
          "12": 0.9868760704994202,
          "13": 3.7196033000946045,
          "14": -2.60725998878479,
          "15": -0.8589543104171753,
          "16": -1.420766830444336,
          "17": -0.5488350987434387,
          "18": -0.07838644087314606,
          "19": 0.5288086533546448
        }
      },
      "94": {
        "bias": 1.1021267175674438,
        "weights": {
          "0": 0.00828754436224699,
          "1": -2.943992853164673,
          "2": -1.8566508293151855,
          "3": 0.6391284465789795,
          "4": 0.07250423729419708,
          "5": -0.4512057602405548,
          "6": -0.6199589371681213,
          "7": -0.5939779281616211,
          "8": -0.3175966739654541,
          "9": -0.04334472119808197,
          "10": -0.18358463048934937,
          "11": -2.8253068923950195,
          "12": -1.81158447265625,
          "13": 0.891582727432251,
          "14": 0.12683400511741638,
          "15": -0.3411724269390106,
          "16": -0.8483098745346069,
          "17": -0.5472829341888428,
          "18": -0.29451146721839905,
          "19": 0.6602641940116882
        }
      },
      "95": {
        "bias": 2.504228115081787,
        "weights": {
          "0": -0.1798989176750183,
          "1": -2.9283974170684814,
          "2": -2.143716812133789,
          "3": -0.9788499474525452,
          "4": -0.6401559710502625,
          "5": -0.19131027162075043,
          "6": -0.44457903504371643,
          "7": -0.11299504339694977,
          "8": -0.052201543003320694,
          "9": 0.1457478553056717,
          "10": -0.050070833414793015,
          "11": -3.2422070503234863,
          "12": -2.339550495147705,
          "13": -1.2137151956558228,
          "14": -1.1306312084197998,
          "15": -0.7450777888298035,
          "16": -0.4326415956020355,
          "17": -0.27837517857551575,
          "18": -0.12166715413331985,
          "19": -0.18825465440750122
        }
      },
      "96": {
        "bias": 1.5187183618545532,
        "weights": {
          "0": -0.027665456756949425,
          "1": -1.7083392143249512,
          "2": -1.457931637763977,
          "3": -0.41207629442214966,
          "4": -0.2297079861164093,
          "5": -0.34623071551322937,
          "6": -0.7150793075561523,
          "7": -0.399164617061615,
          "8": -0.3518948256969452,
          "9": 0.17237086594104767,
          "10": -0.041994575411081314,
          "11": -1.8799508810043335,
          "12": -1.5816997289657593,
          "13": -0.5165056586265564,
          "14": -0.4787156283855438,
          "15": -0.24900230765342712,
          "16": -0.5312833189964294,
          "17": -0.22435735166072845,
          "18": -0.07694670557975769,
          "19": 0.1155918538570404
        }
      },
      "97": {
        "bias": 1.4111963510513306,
        "weights": {
          "0": -0.13899090886116028,
          "1": -2.2775185108184814,
          "2": -1.8308629989624023,
          "3": -0.9662349820137024,
          "4": 0.07559965550899506,
          "5": -0.18296314775943756,
          "6": -0.03882642835378647,
          "7": 0.10097403079271317,
          "8": -0.10752799361944199,
          "9": -0.8344942927360535,
          "10": -0.18563927710056305,
          "11": -2.4397921562194824,
          "12": -1.797351360321045,
          "13": -1.0459728240966797,
          "14": -0.2956750690937042,
          "15": -0.4158237874507904,
          "16": -0.10447270423173904,
          "17": -0.03396034613251686,
          "18": -0.10402747243642807,
          "19": -0.514021635055542
        }
      },
      "98": {
        "bias": 0.8755845427513123,
        "weights": {
          "0": -0.18422892689704895,
          "1": -3.593707799911499,
          "2": -2.006955623626709,
          "3": 0.20395004749298096,
          "4": 0.4877031743526459,
          "5": 0.34747186303138733,
          "6": 0.0013058304321020842,
          "7": -0.1592802256345749,
          "8": -0.27169784903526306,
          "9": -0.14514566957950592,
          "10": -0.0003642775409389287,
          "11": -3.3645846843719482,
          "12": -1.861443042755127,
          "13": 0.2815817594528198,
          "14": 0.6489993929862976,
          "15": 0.435274600982666,
          "16": -0.2648087441921234,
          "17": -0.26492488384246826,
          "18": -0.2040950208902359,
          "19": 0.05143158510327339
        }
      },
      "99": {
        "bias": 0.08217235654592514,
        "weights": {
          "0": -0.019458122551441193,
          "1": -1.30312180519104,
          "2": -0.9358758926391602,
          "3": -0.16002047061920166,
          "4": -0.3155094385147095,
          "5": -0.2483334094285965,
          "6": -0.22172324359416962,
          "7": -0.22902284562587738,
          "8": 0.13167907297611237,
          "9": -0.3715111315250397,
          "10": 0.13328418135643005,
          "11": -1.077247977256775,
          "12": -0.8533180952072144,
          "13": -0.21310877799987793,
          "14": -0.1988624781370163,
          "15": 0.2561608552932739,
          "16": -0.22776733338832855,
          "17": -0.07932005822658539,
          "18": -0.04920884966850281,
          "19": -0.5702180862426758
        }
      },
      "100": {
        "bias": 2.479994058609009,
        "weights": {
          "0": -0.0599311962723732,
          "1": -1.7872464656829834,
          "2": -0.9009541869163513,
          "3": -1.7749226093292236,
          "4": -0.06269557029008865,
          "5": -0.13780780136585236,
          "6": -0.2128354012966156,
          "7": -0.36942631006240845,
          "8": -0.18636052310466766,
          "9": -0.2682662904262543,
          "10": 0.02587129734456539,
          "11": -2.03501296043396,
          "12": -1.255460500717163,
          "13": -1.7582945823669434,
          "14": -0.0874020978808403,
          "15": 0.46200838685035706,
          "16": -0.5996940732002258,
          "17": -0.25716647505760193,
          "18": -0.02915138192474842,
          "19": 0.3967703878879547
        }
      },
      "101": {
        "bias": -0.6002179384231567,
        "weights": {
          "0": -0.15502022206783295,
          "1": 2.584679365158081,
          "2": -2.925144672393799,
          "3": -0.976585865020752,
          "4": -1.6564332246780396,
          "5": -0.46731504797935486,
          "6": 0.11534444242715836,
          "7": 0.12555226683616638,
          "8": 0.024127662181854248,
          "9": 0.30460503697395325,
          "10": -0.1257724165916443,
          "11": 2.4672868251800537,
          "12": -3.1248879432678223,
          "13": -0.9116158485412598,
          "14": -1.8601680994033813,
          "15": -0.5679144263267517,
          "16": 0.34215229749679565,
          "17": 0.12551116943359375,
          "18": 0.18244218826293945,
          "19": 0.15593624114990234
        }
      },
      "102": {
        "bias": 1.2061069011688232,
        "weights": {
          "0": -0.1158982366323471,
          "1": -1.535713791847229,
          "2": -0.8288449048995972,
          "3": -0.7756242156028748,
          "4": -0.6746817231178284,
          "5": -0.12143079191446304,
          "6": -0.37513378262519836,
          "7": 0.03710678592324257,
          "8": -0.14591826498508453,
          "9": -0.09641140699386597,
          "10": 0.02142488583922386,
          "11": -1.204180121421814,
          "12": -0.3680865466594696,
          "13": -0.6121876835823059,
          "14": -0.2111121416091919,
          "15": 0.0024101927410811186,
          "16": -0.23431658744812012,
          "17": -0.2509855329990387,
          "18": -0.09767298400402069,
          "19": -0.7308340072631836
        }
      },
      "103": {
        "bias": -22.60532569885254,
        "weights": {
          "0": 0.1647639125585556,
          "1": -0.19257201254367828,
          "2": -0.258535236120224,
          "3": -0.11522667109966278,
          "4": -0.6360732913017273,
          "5": 12.669299125671387,
          "6": 5.676027297973633,
          "7": 2.981581926345825,
          "8": 1.327027440071106,
          "9": 0.658298134803772,
          "10": 0.06298299878835678,
          "11": -0.25607699155807495,
          "12": -0.011103827506303787,
          "13": -0.1473441869020462,
          "14": -0.532604455947876,
          "15": 12.769698143005371,
          "16": 5.64764928817749,
          "17": 3.0067148208618164,
          "18": 1.443149209022522,
          "19": 0.7673013806343079
        }
      },
      "104": {
        "bias": 2.617891550064087,
        "weights": {
          "0": -0.08463530987501144,
          "1": -2.0167386531829834,
          "2": -1.1003191471099854,
          "3": -0.5371213555335999,
          "4": -1.0524287223815918,
          "5": -0.5396567583084106,
          "6": -0.19895833730697632,
          "7": -0.2052137404680252,
          "8": 0.10448694974184036,
          "9": 0.01413928996771574,
          "10": -0.07722598314285278,
          "11": -2.308673143386841,
          "12": -1.4045648574829102,
          "13": -0.8678885698318481,
          "14": -1.5475870370864868,
          "15": -0.8542344570159912,
          "16": -0.5267504453659058,
          "17": -0.13105961680412292,
          "18": 0.18822480738162994,
          "19": -0.5111169219017029
        }
      },
      "105": {
        "bias": -0.3003509044647217,
        "weights": {
          "0": 0.10880182683467865,
          "1": 2.004209280014038,
          "2": -1.9271451234817505,
          "3": 1.2855496406555176,
          "4": -1.7266525030136108,
          "5": -0.8798789381980896,
          "6": -0.6765444874763489,
          "7": -0.26365137100219727,
          "8": -0.4092991054058075,
          "9": -0.17491956055164337,
          "10": -0.18831510841846466,
          "11": 1.8776756525039673,
          "12": -1.8217098712921143,
          "13": 1.281988501548767,
          "14": -2.040719509124756,
          "15": -1.0085880756378174,
          "16": -0.706773042678833,
          "17": -0.4511479437351227,
          "18": 0.014303171075880527,
          "19": -0.4171333312988281
        }
      },
      "106": {
        "bias": 1.081652045249939,
        "weights": {
          "0": -0.016104627400636673,
          "1": -0.8736727237701416,
          "2": -0.04592239111661911,
          "3": -0.20179899036884308,
          "4": -0.7774404287338257,
          "5": -0.49414753913879395,
          "6": 0.0643189549446106,
          "7": 0.37733498215675354,
          "8": -0.5152474045753479,
          "9": -1.563079833984375,
          "10": 0.03697284683585167,
          "11": -0.6345491409301758,
          "12": -0.005417082458734512,
          "13": -0.17898298799991608,
          "14": -1.072293758392334,
          "15": -0.4045480489730835,
          "16": -0.4996679425239563,
          "17": -0.7099961042404175,
          "18": 0.5919573307037354,
          "19": 0.32726919651031494
        }
      },
      "107": {
        "bias": -4.583345413208008,
        "weights": {
          "0": 0.18779081106185913,
          "1": 2.234130382537842,
          "2": 0.6406627297401428,
          "3": -0.4117889404296875,
          "4": -0.17580239474773407,
          "5": 0.38507941365242004,
          "6": -0.15319836139678955,
          "7": -0.01967397704720497,
          "8": -0.05625248700380325,
          "9": -0.2437717318534851,
          "10": -0.1498023122549057,
          "11": 1.873037576675415,
          "12": 0.41851916909217834,
          "13": 0.07131193578243256,
          "14": -0.6870990991592407,
          "15": -0.07271013408899307,
          "16": -0.5375998616218567,
          "17": 0.04472443088889122,
          "18": -0.16544879972934723,
          "19": -0.39556118845939636
        }
      },
      "108": {
        "bias": -4.267404556274414,
        "weights": {
          "0": 0.06793507933616638,
          "1": 1.798966884613037,
          "2": 1.2779778242111206,
          "3": -0.2820437252521515,
          "4": -0.5454830527305603,
          "5": -0.14875803887844086,
          "6": -0.05342493951320648,
          "7": -0.013744579628109932,
          "8": -0.28268033266067505,
          "9": 0.14392581582069397,
          "10": -0.11945176869630814,
          "11": 1.7301900386810303,
          "12": 1.0236798524856567,
          "13": 0.07880888134241104,
          "14": -0.5293936133384705,
          "15": -0.2589467465877533,
          "16": -0.03875799477100372,
          "17": 0.11112046986818314,
          "18": -0.21357744932174683,
          "19": 0.10948728770017624
        }
      },
      "109": {
        "bias": 2.0648841857910156,
        "weights": {
          "0": -0.09057551622390747,
          "1": -0.02224056050181389,
          "2": 0.12246570736169815,
          "3": 0.11022622138261795,
          "4": -4.943662166595459,
          "5": -0.8331752419471741,
          "6": 0.4089565873146057,
          "7": 0.6137626767158508,
          "8": -0.17987826466560364,
          "9": 0.20596957206726074,
          "10": -0.07869084924459457,
          "11": 0.12072912603616714,
          "12": -0.054206643253564835,
          "13": 0.0516592375934124,
          "14": -5.103928565979004,
          "15": -0.7647209167480469,
          "16": 0.7836909294128418,
          "17": 0.24718017876148224,
          "18": 0.6290348172187805,
          "19": -0.283680260181427
        }
      },
      "110": {
        "bias": -4.2890543937683105,
        "weights": {
          "0": -0.16517214477062225,
          "1": -0.27941814064979553,
          "2": -0.3214796781539917,
          "3": -0.20965898036956787,
          "4": -0.2790268361568451,
          "5": -0.2633700668811798,
          "6": 3.286386728286743,
          "7": 3.5214526653289795,
          "8": 1.5880557298660278,
          "9": 0.5038244128227234,
          "10": 0.19613109529018402,
          "11": -0.2515723407268524,
          "12": -0.2832503914833069,
          "13": -0.22655737400054932,
          "14": -0.24393120408058167,
          "15": -0.21428248286247253,
          "16": -3.362595319747925,
          "17": 3.5315403938293457,
          "18": 1.7245808839797974,
          "19": 0.6167605519294739
        }
      },
      "111": {
        "bias": 3.1411068439483643,
        "weights": {
          "0": -0.13306757807731628,
          "1": -3.7408440113067627,
          "2": -2.332228422164917,
          "3": 0.2439361810684204,
          "4": -2.8748137950897217,
          "5": -0.532331109046936,
          "6": -0.6499723792076111,
          "7": -0.3990388512611389,
          "8": -0.10941407829523087,
          "9": 0.8060411214828491,
          "10": 0.15814699232578278,
          "11": -1.9888911247253418,
          "12": -1.3200664520263672,
          "13": -0.9961028099060059,
          "14": -2.191045045852661,
          "15": -0.6873548030853271,
          "16": 0.31082087755203247,
          "17": -0.32118457555770874,
          "18": -0.3568863868713379,
          "19": -0.3179721534252167
        }
      },
      "112": {
        "bias": -0.43194758892059326,
        "weights": {
          "0": -0.024190373718738556,
          "1": 0.9622461795806885,
          "2": -0.1725132316350937,
          "3": -0.2985495328903198,
          "4": -1.3930624723434448,
          "5": -0.23768267035484314,
          "6": -0.4757436215877533,
          "7": -0.4185340702533722,
          "8": -0.5126388072967529,
          "9": -0.19322232902050018,
          "10": -0.1936408132314682,
          "11": 0.894558846950531,
          "12": -0.24321816861629486,
          "13": -0.31408730149269104,
          "14": -1.4067137241363525,
          "15": -0.5251151323318481,
          "16": -0.05907982960343361,
          "17": 0.4161319136619568,
          "18": 0.17852455377578735,
          "19": -0.557067334651947
        }
      },
      "113": {
        "bias": -3.4635908603668213,
        "weights": {
          "0": 0.021105289459228516,
          "1": 2.6539602279663086,
          "2": 0.7273328900337219,
          "3": 1.2432656288146973,
          "4": -1.4133350849151611,
          "5": -2.7519171237945557,
          "6": -1.1566846370697021,
          "7": -0.9186869859695435,
          "8": -0.22850100696086884,
          "9": -0.13589051365852356,
          "10": 0.030433671548962593,
          "11": 2.86749005317688,
          "12": 0.7788122892379761,
          "13": 1.8458975553512573,
          "14": -0.7214094996452332,
          "15": -2.9216678142547607,
          "16": -0.8700937628746033,
          "17": -0.4308569133281708,
          "18": -0.3317612409591675,
          "19": 0.2806914150714874
        }
      },
      "114": {
        "bias": 2.667283058166504,
        "weights": {
          "0": -0.13548268377780914,
          "1": -1.684029459953308,
          "2": -1.3200024366378784,
          "3": -1.2163232564926147,
          "4": -1.3490471839904785,
          "5": -0.7555157542228699,
          "6": -0.1708066165447235,
          "7": 0.2597033381462097,
          "8": -0.02341754548251629,
          "9": -0.29690006375312805,
          "10": 0.10832739621400833,
          "11": -2.041499137878418,
          "12": -1.0263055562973022,
          "13": -0.7830442786216736,
          "14": -1.3686379194259644,
          "15": -0.5201497673988342,
          "16": -0.313016802072525,
          "17": -0.7780142426490784,
          "18": -0.08765748888254166,
          "19": 0.18076744675636292
        }
      },
      "115": {
        "bias": -2.5107059478759766,
        "weights": {
          "0": 0.08258385211229324,
          "1": 2.056272268295288,
          "2": 0.22025276720523834,
          "3": -0.4762105643749237,
          "4": 0.11025622487068176,
          "5": -0.6325350403785706,
          "6": -0.42759445309638977,
          "7": -0.14429661631584167,
          "8": -0.17382091283798218,
          "9": -0.4565894901752472,
          "10": 0.14972633123397827,
          "11": 1.9461535215377808,
          "12": 0.196181982755661,
          "13": -0.6126785278320312,
          "14": 0.013165670447051525,
          "15": -0.7086682915687561,
          "16": -0.509469747543335,
          "17": -0.42246973514556885,
          "18": 0.09738951921463013,
          "19": -0.2852008640766144
        }
      },
      "116": {
        "bias": 4.397915363311768,
        "weights": {
          "0": -0.11744297295808792,
          "1": -4.074942111968994,
          "2": -2.3407340049743652,
          "3": -1.042559266090393,
          "4": 0.8950533270835876,
          "5": 0.35502856969833374,
          "6": 0.10520496219396591,
          "7": -0.37331852316856384,
          "8": -0.27986961603164673,
          "9": 0.17910003662109375,
          "10": -0.03611213341355324,
          "11": -3.786386728286743,
          "12": -2.753507137298584,
          "13": -1.0809077024459839,
          "14": 0.8638706207275391,
          "15": -0.14145320653915405,
          "16": 0.12446124851703644,
          "17": 0.02388046309351921,
          "18": 0.12594665586948395,
          "19": -0.27454644441604614
        }
      },
      "117": {
        "bias": 2.7113547325134277,
        "weights": {
          "0": -0.18180997669696808,
          "1": 0.20273835957050323,
          "2": 0.373500794172287,
          "3": 0.2215159833431244,
          "4": 0.3509467542171478,
          "5": 0.5326923131942749,
          "6": -3.2275707721710205,
          "7": -0.4338299334049225,
          "8": -0.8080299496650696,
          "9": -0.5072892904281616,
          "10": 0.06030631810426712,
          "11": 0.23933415114879608,
          "12": 0.39050713181495667,
          "13": 0.10169210284948349,
          "14": 0.4281981587409973,
          "15": 0.7054299712181091,
          "16": -1.9791524410247803,
          "17": -0.5726843476295471,
          "18": -0.44900697469711304,
          "19": -0.18935371935367584
        }
      },
      "118": {
        "bias": -1.271399974822998,
        "weights": {
          "0": -0.16557855904102325,
          "1": 1.6309581995010376,
          "2": 1.1130144596099854,
          "3": -1.6344093084335327,
          "4": -1.8829662799835205,
          "5": -1.2415804862976074,
          "6": -0.3352140784263611,
          "7": -0.1430007666349411,
          "8": 0.09234683960676193,
          "9": -0.2252095639705658,
          "10": -0.018579144030809402,
          "11": 1.2687034606933594,
          "12": 0.9311031103134155,
          "13": -1.7922980785369873,
          "14": -1.7007520198822021,
          "15": -1.0453535318374634,
          "16": -0.5522918701171875,
          "17": -0.4020001292228699,
          "18": -0.052620530128479004,
          "19": -0.6162989139556885
        }
      },
      "119": {
        "bias": -0.13283474743366241,
        "weights": {
          "0": -0.04011257365345955,
          "1": -2.121171712875366,
          "2": -2.1868715286254883,
          "3": -0.32837119698524475,
          "4": -0.18594348430633545,
          "5": 0.35668593645095825,
          "6": 0.6628305912017822,
          "7": 0.32945361733436584,
          "8": 0.1634344905614853,
          "9": 0.7157397866249084,
          "10": -0.11569085717201233,
          "11": -2.0082521438598633,
          "12": -2.2527120113372803,
          "13": -0.510823667049408,
          "14": 0.002445173216983676,
          "15": 0.28637057542800903,
          "16": 0.5711367726325989,
          "17": 0.7518226504325867,
          "18": 0.4066901206970215,
          "19": 0.7040702700614929
        }
      },
      "120": {
        "bias": 2.1058826446533203,
        "weights": {
          "0": 0.11076914519071579,
          "1": -2.3446128368377686,
          "2": -1.523576021194458,
          "3": -0.6944672465324402,
          "4": -1.852403998374939,
          "5": -0.687605619430542,
          "6": 0.07326307147741318,
          "7": -0.08950354158878326,
          "8": 0.12683139741420746,
          "9": -0.5983240604400635,
          "10": -0.08911270648241043,
          "11": -2.2993319034576416,
          "12": -1.3354640007019043,
          "13": -0.041571859270334244,
          "14": -1.4141424894332886,
          "15": -0.5722476840019226,
          "16": -0.05856367573142052,
          "17": 0.3151744306087494,
          "18": 0.1782388687133789,
          "19": 0.5129846334457397
        }
      },
      "121": {
        "bias": 0.20916301012039185,
        "weights": {
          "0": 0.004339229315519333,
          "1": -1.6849229335784912,
          "2": -1.235784888267517,
          "3": -1.359864592552185,
          "4": -0.5235790014266968,
          "5": -0.2820161283016205,
          "6": 0.9434458017349243,
          "7": 0.8303598761558533,
          "8": -0.022179577499628067,
          "9": 0.11938034743070602,
          "10": 0.13577117025852203,
          "11": -1.7212402820587158,
          "12": -1.2504103183746338,
          "13": -1.4347937107086182,
          "14": -0.5418280363082886,
