{
  "sizes": [
    4,
    6,
    6,
    8
  ],
  "layers": [
    {
      "0": {},
      "1": {},
      "2": {},
      "3": {}
    },
    {
      "0": {
        "bias": 2.0772578716278076,
        "weights": {
          "0": 1.7297859191894531,
          "1": 4.686734676361084,
          "2": -3.161548137664795,
          "3": -4.8912482261657715
        }
      },
      "1": {
        "bias": -0.7139659523963928,
        "weights": {
          "0": 2.861663341522217,
          "1": -2.1265745162963867,
          "2": 6.697254180908203,
          "3": -1.3957959413528442
        }
      },
      "2": {
        "bias": -0.3510434925556183,
        "weights": {
          "0": -1.630767583847046,
          "1": 3.5809414386749268,
          "2": -3.10467529296875,
          "3": 1.6434693336486816
        }
      },
      "3": {
        "bias": 0.17749859392642975,
        "weights": {
          "0": 2.357046604156494,
          "1": -1.2980608940124512,
          "2": -2.319718837738037,
          "3": -5.2873029708862305
        }
      },
      "4": {
        "bias": 2.017942190170288,
        "weights": {
          "0": -6.221404075622559,
          "1": -1.2598607540130615,
          "2": 0.48820653557777405,
          "3": 0.17540839314460754
        }
      },
      "5": {
        "bias": 0.7077115774154663,
        "weights": {
          "0": 1.8044276237487793,
          "1": -0.32286250591278076,
          "2": -0.10337115079164505,
          "3": -4.988385200500488
        }
      }
    },
    {
      "0": {
        "bias": 0.4457241892814636,
        "weights": {
          "0": -3.550689697265625,
          "1": -4.605579853057861,
          "2": 5.853402137756348,
          "3": -4.520991325378418,
          "4": 4.0060014724731445,
          "5": -4.9029541015625
        }
      },
      "1": {
        "bias": -0.18481506407260895,
        "weights": {
          "0": -7.375714302062988,
          "1": 4.461877346038818,
          "2": -4.170253753662109,
          "3": -3.7101104259490967,
          "4": 3.0110061168670654,
          "5": -2.0929055213928223
        }
      },
      "2": {
        "bias": -0.9097616076469421,
        "weights": {
          "0": 1.7692828178405762,
          "1": -3.6019153594970703,
          "2": 1.2505497932434082,
          "3": 1.8200668096542358,
          "4": 6.541497707366943,
          "5": 0.5769426822662354
        }
      },
      "3": {
        "bias": 1.0352702140808105,
        "weights": {
          "0": 1.4211207628250122,
          "1": -8.84976577758789,
          "2": 2.0393528938293457,
          "3": 2.639103651046753,
          "4": 1.7081847190856934,
          "5": 0.3931616544723511
        }
      },
      "4": {
        "bias": 1.5789437294006348,
        "weights": {
          "0": -4.5150322914123535,
          "1": 6.050236701965332,
          "2": -1.0206828117370605,
          "3": -4.952028274536133,
          "4": 4.186424732208252,
          "5": -2.94964599609375
        }
      },
      "5": {
        "bias": 1.7015790939331055,
        "weights": {
          "0": -4.996311664581299,
          "1": 1.287139654159546,
          "2": -3.0064151287078857,
          "3": -2.2087819576263428,
          "4": -0.7162984013557434,
          "5": -2.8510656356811523
        }
      }
    },
    {
      "0": {
        "bias": -3.654806137084961,
        "weights": {
          "0": -1.155829668045044,
          "1": -0.9530810713768005,
          "2": -1.1578354835510254,
          "3": -1.0704773664474487,
          "4": -1.3416723012924194,
          "5": -1.1800583600997925
        }
      },
      "1": {
        "bias": -3.6204185485839844,
        "weights": {
          "0": -1.1646389961242676,
          "1": -1.2410774230957031,
          "2": -1.0452061891555786,
          "3": -1.2088958024978638,
          "4": -1.6020046472549438,
          "5": -0.974587619304657
        }
      },
      "2": {
        "bias": 5.357303619384766,
        "weights": {
          "0": -2.6784467697143555,
          "1": -7.5735015869140625,
          "2": -3.3227531909942627,
          "3": -6.00532865524292,
          "4": 2.557621955871582,
          "5": -4.280343055725098
        }
      },
      "3": {
        "bias": -4.055908203125,
        "weights": {
          "0": 9.234062194824219,
          "1": 7.658115386962891,
          "2": -1.8169217109680176,
          "3": 2.27620267868042,
          "4": 1.960949420928955,
          "5": 5.341749668121338
        }
      },
      "4": {
        "bias": -4.5867438316345215,
        "weights": {
          "0": -4.484441757202148,
          "1": 4.569443702697754,
          "2": -5.0523295402526855,
          "3": -2.005249500274658,
          "4": -0.5390738248825073,
          "5": 4.341039657592773
        }
      },
      "5": {
        "bias": 6.558286190032959,
        "weights": {
          "0": 9.364487648010254,
          "1": -1.272029161453247,
          "2": -1.6330472230911255,
          "3": -7.392160892486572,
          "4": -9.033448219299316,
          "5": -4.49431848526001
        }
      },
      "6": {
        "bias": -6.040154933929443,
        "weights": {
          "0": -3.677621603012085,
          "1": 4.351008892059326,
          "2": 1.261509656906128,
          "3": -5.1269612312316895,
          "4": 8.468724250793457,
          "5": 1.5272184610366821
        }
      },
      "7": {
        "bias": 0.7307122349739075,
        "weights": {
          "0": 8.495783805847168,
          "1": -7.788076400756836,
          "2": -6.769034385681152,
          "3": -3.435326099395752,
          "4": 9.536255836486816,
          "5": 2.1252055168151855
        }
      }
    }
  ],
  "outputLookup": false,
  "inputLookup": false,
  "activation": "sigmoid",
  "trainOpts": {
    "iterations": 20000,
    "errorThresh": 0.0005,
    "log": true,
    "logPeriod": 10,
    "learningRate": 0.3,
    "momentum": 0.1,
    "callbackPeriod": 10,
    "beta1": 0.9,
    "beta2": 0.999,
    "epsilon": 1e-8
  }
}