{
  "sizes": [
    8,
    65,
    1
  ],
  "layers": [
    {
      "0": {},
      "1": {},
      "2": {},
      "3": {},
      "4": {},
      "5": {},
      "6": {},
      "7": {}
    },
    {
      "0": {
        "bias": -1.0784704685211182,
        "weights": {
          "0": 0.8370174765586853,
          "1": -0.2777048349380493,
          "2": -0.7611556053161621,
          "3": -1.7389872074127197,
          "4": 1.8543280363082886,
          "5": 1.3980647325515747,
          "6": -0.3801625370979309,
          "7": -2.766864061355591
        }
      },
      "1": {
        "bias": -1.9727458953857422,
        "weights": {
          "0": -1.0459567308425903,
          "1": -0.5451155304908752,
          "2": 0.42486193776130676,
          "3": 1.3986436128616333,
          "4": 3.509103536605835,
          "5": -2.3112714290618896,
          "6": 1.184920310974121,
          "7": 0.21234440803527832
        }
      },
      "2": {
        "bias": 0.6931583285331726,
        "weights": {
          "0": -0.940597414970398,
          "1": -1.9209403991699219,
          "2": -1.3351879119873047,
          "3": -1.8552002906799316,
          "4": -2.5165765285491943,
          "5": -0.006682853680104017,
          "6": 0.10237033665180206,
          "7": -2.4311001300811768
        }
      },
      "3": {
        "bias": -0.7675232887268066,
        "weights": {
          "0": -0.7902560234069824,
          "1": -0.3497777283191681,
          "2": -0.6141529679298401,
          "3": -0.5616066455841064,
          "4": -0.33003973960876465,
          "5": -0.3914364278316498,
          "6": -0.3355742394924164,
          "7": -0.48162561655044556
        }
      },
      "4": {
        "bias": -0.6281415820121765,
        "weights": {
          "0": 0.37494704127311707,
          "1": -0.10020077228546143,
          "2": 0.07445775717496872,
          "3": 0.1232791319489479,
          "4": -0.22496767342090607,
          "5": 0.030467821285128593,
          "6": -0.14241793751716614,
          "7": -1.3286783695220947
        }
      },
      "5": {
        "bias": -0.5779263377189636,
        "weights": {
          "0": 0.535208523273468,
          "1": -1.5830305814743042,
          "2": 0.6521404385566711,
          "3": -0.8308969736099243,
          "4": 0.33531659841537476,
          "5": -0.552920937538147,
          "6": -1.708857536315918,
          "7": -0.23198769986629486
        }
      },
      "6": {
        "bias": -0.5457598567008972,
        "weights": {
          "0": -0.10960705578327179,
          "1": -0.4063790738582611,
          "2": -0.18780064582824707,
          "3": -0.437849760055542,
          "4": -0.42579320073127747,
          "5": -0.25064390897750854,
          "6": -0.4841820001602173,
          "7": -0.48125675320625305
        }
      },
      "7": {
        "bias": -0.5004366040229797,
        "weights": {
          "0": 0.35166317224502563,
          "1": -0.0613921582698822,
          "2": -0.18387196958065033,
          "3": -0.21562537550926208,
          "4": -0.10441897064447403,
          "5": -0.3770952522754669,
          "6": -0.5639829039573669,
          "7": -0.7915152311325073
        }
      },
      "8": {
        "bias": -0.5581291317939758,
        "weights": {
          "0": -0.20123358070850372,
          "1": 0.12548497319221497,
          "2": 0.009956376627087593,
          "3": -0.6225345730781555,
          "4": -0.2846299707889557,
          "5": -0.4815107583999634,
          "6": -0.3725179135799408,
          "7": -0.7777532935142517
        }
      },
      "9": {
        "bias": -0.6864426732063293,
        "weights": {
          "0": 0.023268086835741997,
          "1": -0.2874792218208313,
          "2": -0.20153231918811798,
          "3": -0.3435738980770111,
          "4": -0.2766082286834717,
          "5": -0.4640274941921234,
          "6": -0.41891250014305115,
          "7": -0.3983011543750763
        }
      },
      "10": {
        "bias": -0.6035192012786865,
        "weights": {
          "0": 0.12280391156673431,
          "1": -0.3032788038253784,
          "2": -0.2915799021720886,
          "3": -0.524101972579956,
          "4": -0.3519950807094574,
          "5": -0.21069233119487762,
          "6": -0.3195735812187195,
          "7": -0.41620004177093506
        }
      },
      "11": {
        "bias": -0.6092661619186401,
        "weights": {
          "0": 0.06941775232553482,
          "1": -0.3710702061653137,
          "2": -0.2239355444908142,
          "3": -0.34470677375793457,
          "4": -0.4239361882209778,
          "5": -0.32812657952308655,
          "6": -0.39960023760795593,
          "7": -0.3924144506454468
        }
      },
      "12": {
        "bias": -0.6084444522857666,
        "weights": {
          "0": -0.20517420768737793,
          "1": -0.3068014085292816,
          "2": -0.11269708722829819,
          "3": -0.38411039113998413,
          "4": -0.3507590889930725,
          "5": -0.43892964720726013,
          "6": -0.19162002205848694,
          "7": -0.5739774107933044
        }
      },
      "13": {
        "bias": -0.4754253327846527,
        "weights": {
          "0": -0.050424233078956604,
          "1": -0.39932605624198914,
          "2": -0.2390175610780716,
          "3": -0.3417760729789734,
          "4": -0.3615739643573761,
          "5": -0.4027409255504608,
          "6": -0.5478197932243347,
          "7": -0.48430079221725464
        }
      },
      "14": {
        "bias": -0.7074052095413208,
        "weights": {
          "0": -0.4048403203487396,
          "1": -0.3611682653427124,
          "2": -0.2995778024196625,
          "3": -0.5242938995361328,
          "4": -0.3408204913139343,
          "5": -0.23928341269493103,
          "6": -0.3838973343372345,
          "7": -0.49393171072006226
        }
      },
      "15": {
        "bias": -0.797929584980011,
        "weights": {
          "0": -0.38643917441368103,
          "1": -0.492630273103714,
          "2": -0.6310221552848816,
          "3": -0.9054011702537537,
          "4": -0.7006776332855225,
          "5": -0.33887967467308044,
          "6": -0.3087622821331024,
          "7": -1.020243525505066
        }
      },
      "16": {
        "bias": -0.8919685482978821,
        "weights": {
          "0": 0.5884312391281128,
          "1": 0.2961130440235138,
          "2": -0.6592096090316772,
          "3": -0.1251218467950821,
          "4": 0.6976152062416077,
          "5": 0.7444134950637817,
          "6": 0.4436175525188446,
          "7": -2.627683162689209
        }
      },
      "17": {
        "bias": -0.575969398021698,
        "weights": {
          "0": -0.3128799498081207,
          "1": -0.18601040542125702,
          "2": -0.23020237684249878,
          "3": -0.5078680515289307,
          "4": -0.27292877435684204,
          "5": -0.35426071286201477,
          "6": -0.5217970609664917,
          "7": -0.7515277862548828
        }
      },
      "18": {
        "bias": -0.390097975730896,
        "weights": {
          "0": 0.6145089268684387,
          "1": -0.25801411271095276,
          "2": 0.06772775948047638,
          "3": -0.018030434846878052,
          "4": -0.3748972713947296,
          "5": -0.3574250340461731,
          "6": -0.3574627935886383,
          "7": -1.0213733911514282
        }
      },
      "19": {
        "bias": -0.6901009678840637,
        "weights": {
          "0": -0.7872685790061951,
          "1": -0.40063807368278503,
          "2": -0.7878683805465698,
          "3": -0.9572305083274841,
          "4": -0.5647916197776794,
          "5": -0.672021210193634,
          "6": -0.21785253286361694,
          "7": -1.0144646167755127
        }
      },
      "20": {
        "bias": -0.6483045220375061,
        "weights": {
          "0": -0.38299015164375305,
          "1": -0.6057050228118896,
          "2": -0.7691558003425598,
          "3": -0.8833103775978088,
          "4": -0.7336105108261108,
          "5": -0.4747137725353241,
          "6": -0.2706049680709839,
          "7": -1.3093159198760986
        }
      },
      "21": {
        "bias": -0.767350435256958,
        "weights": {
          "0": -0.43946573138237,
          "1": -0.3487248718738556,
          "2": -0.6803562641143799,
          "3": -0.8348098397254944,
          "4": -0.6204567551612854,
          "5": -0.5989099740982056,
          "6": -0.17561466991901398,
          "7": -0.9567220211029053
        }
      },
      "22": {
        "bias": -0.6782274842262268,
        "weights": {
          "0": -0.4764052629470825,
          "1": -0.2901169955730438,
          "2": -0.472694456577301,
          "3": -0.5650486946105957,
          "4": -0.30226022005081177,
          "5": -0.44752374291419983,
          "6": -0.35702377557754517,
          "7": -0.7591381669044495
        }
      },
      "23": {
        "bias": -0.4956110119819641,
        "weights": {
          "0": 0.7775458097457886,
          "1": -1.5152961015701294,
          "2": 0.4907098710536957,
          "3": -0.5564631819725037,
          "4": 0.11383571475744247,
          "5": -0.7074176669120789,
          "6": -1.394083857536316,
          "7": -0.40839582681655884
        }
      },
      "24": {
        "bias": -0.7511886954307556,
        "weights": {
          "0": -0.18278881907463074,
          "1": 0.11737412959337234,
          "2": -0.013309076428413391,
          "3": -0.4703627824783325,
          "4": -0.005092519801110029,
          "5": -0.39196810126304626,
          "6": -0.3227606415748596,
          "7": -0.5848531126976013
        }
      },
      "25": {
        "bias": -2.164608955383301,
        "weights": {
          "0": -0.9991387128829956,
          "1": -0.9992635846138,
          "2": 2.186285972595215,
          "3": 2.77463960647583,
          "4": 3.8956267833709717,
          "5": -3.173906087875366,
          "6": 1.2723242044448853,
          "7": -0.44112420082092285
        }
      },
      "26": {
        "bias": -0.8507001996040344,
        "weights": {
          "0": -0.6716011166572571,
          "1": -0.5017322301864624,
          "2": -0.6843251585960388,
          "3": -0.8040137887001038,
          "4": -0.7138004899024963,
          "5": -0.5664145946502686,
          "6": -0.08090890198945999,
          "7": -1.0549752712249756
        }
      },
      "27": {
        "bias": -0.39073315262794495,
        "weights": {
          "0": 0.5285083651542664,
          "1": -0.8589064478874207,
          "2": 0.09946037083864212,
          "3": -0.4130881130695343,
          "4": -0.02763468585908413,
          "5": -0.5078807473182678,
          "6": -0.8726614117622375,
          "7": -0.7055850028991699
        }
      },
      "28": {
        "bias": -0.681536078453064,
        "weights": {
          "0": -0.023757515475153923,
          "1": -0.22084976732730865,
          "2": -0.1455363929271698,
          "3": -0.4960787296295166,
          "4": -0.11552003026008606,
          "5": -0.2501510977745056,
          "6": -0.20555636286735535,
          "7": -0.6465742588043213
        }
      },
      "29": {
        "bias": -0.40732043981552124,
        "weights": {
          "0": 0.0724104717373848,
          "1": -0.2842433452606201,
          "2": -0.2245134860277176,
          "3": -0.5076783895492554,
          "4": -0.3830462098121643,
          "5": -0.37217843532562256,
          "6": -0.34967875480651855,
          "7": -0.6450700163841248
        }
      },
      "30": {
        "bias": -0.19638162851333618,
        "weights": {
          "0": -1.334101676940918,
          "1": -3.4888012409210205,
          "2": -5.0379557609558105,
          "3": -0.3363707959651947,
          "4": -6.76983642578125,
          "5": -4.571716785430908,
          "6": 3.7389369010925293,
          "7": -0.587119460105896
        }
      },
      "31": {
        "bias": -0.5427929759025574,
        "weights": {
          "0": 0.562078058719635,
          "1": -0.24384482204914093,
          "2": -0.03432691842317581,
          "3": -0.23229242861270905,
          "4": -0.20706695318222046,
          "5": -0.3106129765510559,
          "6": -0.4515899419784546,
          "7": -0.8304511308670044
        }
      },
      "32": {
        "bias": -0.04579109698534012,
        "weights": {
          "0": 1.4850842952728271,
          "1": -5.655191898345947,
          "2": 4.5289154052734375,
          "3": -2.472886085510254,
          "4": 4.824851036071777,
          "5": -5.154519557952881,
          "6": 3.938386917114258,
          "7": -0.9318529367446899
        }
      },
      "33": {
        "bias": -0.5724359154701233,
        "weights": {
          "0": 0.5796600580215454,
          "1": -0.06181484833359718,
          "2": -0.1827934980392456,
          "3": -0.1552148461341858,
          "4": -0.1699731945991516,
          "5": -0.208731546998024,
          "6": -0.4638834297657013,
          "7": -0.9019708037376404
        }
      },
      "34": {
        "bias": -0.5995362997055054,
        "weights": {
          "0": 0.2150341421365738,
          "1": -0.35100919008255005,
          "2": -0.06319822371006012,
          "3": -0.31877076625823975,
          "4": -0.10373742133378983,
          "5": -0.3203447163105011,
          "6": -0.17533162236213684,
          "7": -0.818297266960144
        }
      },
      "35": {
        "bias": -0.5504654049873352,
        "weights": {
          "0": -0.018127040937542915,
          "1": -0.2735741138458252,
          "2": -0.2441622018814087,
          "3": -0.48793572187423706,
          "4": -0.36932796239852905,
          "5": -0.43596524000167847,
          "6": -0.48076674342155457,
          "7": -0.37728095054626465
        }
      },
      "36": {
        "bias": -0.4577207863330841,
        "weights": {
          "0": 0.15236160159111023,
          "1": -0.16364742815494537,
          "2": -0.2809756398200989,
          "3": -0.3834836483001709,
          "4": -0.1306772530078888,
          "5": -0.3457421660423279,
          "6": -0.5233091711997986,
          "7": -0.6921199560165405
        }
      },
      "37": {
        "bias": -0.941239595413208,
        "weights": {
          "0": -0.7368048429489136,
          "1": -0.23043371737003326,
          "2": -0.4920912981033325,
          "3": -0.4082338511943817,
          "4": 0.053910091519355774,
          "5": -0.17239293456077576,
          "6": -0.30694299936294556,
          "7": -0.12219124287366867
        }
      },
      "38": {
        "bias": -1.380713701248169,
        "weights": {
          "0": 1.7130191326141357,
          "1": 0.9819139838218689,
          "2": 0.4784811735153198,
          "3": 2.0963082313537598,
          "4": 0.9375606775283813,
          "5": 1.0956867933273315,
          "6": 0.9650436043739319,
          "7": -4.054863452911377
        }
      },
      "39": {
        "bias": -0.6406190991401672,
        "weights": {
          "0": -0.12820054590702057,
          "1": -0.09145458042621613,
          "2": -0.1828226000070572,
          "3": -0.5076651573181152,
          "4": -0.31240522861480713,
          "5": -0.3386427164077759,
          "6": -0.4481430947780609,
          "7": -0.7381932139396667
        }
      },
      "40": {
        "bias": -0.5646992325782776,
        "weights": {
          "0": -0.6623163223266602,
          "1": -1.1256908178329468,
          "2": -0.9984002113342285,
          "3": -0.8803097605705261,
          "4": -1.1234080791473389,
          "5": -0.1145990639925003,
          "6": -0.4062484800815582,
          "7": -1.5053125619888306
        }
      },
      "41": {
        "bias": -0.7692349553108215,
        "weights": {
          "0": 0.2434299737215042,
          "1": -0.5632973313331604,
          "2": -0.19594806432724,
          "3": -0.3488349914550781,
          "4": -0.3077828586101532,
          "5": -0.19310489296913147,
          "6": -0.4482806622982025,
          "7": -0.3092139661312103
        }
      },
      "42": {
        "bias": -0.6464389562606812,
        "weights": {
          "0": -0.15245577692985535,
          "1": -0.12442629784345627,
          "2": -0.20755188167095184,
          "3": -0.6162229180335999,
          "4": -0.31794166564941406,
          "5": -0.28410184383392334,
          "6": -0.34640851616859436,
          "7": -0.57823246717453
        }
      },
      "43": {
        "bias": -0.8811454176902771,
        "weights": {
          "0": -0.22377793490886688,
          "1": -0.5276176929473877,
          "2": -0.2571353316307068,
          "3": -0.40434566140174866,
          "4": -0.18319983780384064,
          "5": -0.03866498917341232,
          "6": -0.5374484658241272,
          "7": -0.18400341272354126
        }
      },
      "44": {
        "bias": -0.6950464844703674,
        "weights": {
          "0": 0.42853018641471863,
          "1": -0.055859796702861786,
          "2": -0.04051187261939049,
          "3": -0.011657098308205605,
          "4": -0.23941771686077118,
          "5": -0.1357433795928955,
          "6": -0.3342970311641693,
          "7": -1.0064547061920166
        }
      },
      "45": {
        "bias": -0.44395706057548523,
        "weights": {
          "0": 0.21333357691764832,
          "1": -0.39402708411216736,
          "2": 0.01625591330230236,
          "3": -0.42356449365615845,
          "4": -0.08170090615749359,
          "5": -0.20552094280719757,
          "6": -0.36293265223503113,
          "7": -0.910381019115448
        }
      },
      "46": {
        "bias": -0.8045827150344849,
        "weights": {
          "0": -0.06584677845239639,
          "1": -0.20882554352283478,
          "2": -0.03172990307211876,
          "3": -0.18570350110530853,
          "4": -0.17160116136074066,
          "5": -0.21570263803005219,
          "6": -0.3725908100605011,
          "7": -0.6280384063720703
        }
      },
      "47": {
        "bias": -0.6201820969581604,
        "weights": {
          "0": 0.3874155580997467,
          "1": -0.3576914966106415,
          "2": -0.0015771584585309029,
          "3": 0.03119603917002678,
          "4": -0.5828333497047424,
          "5": -0.36316221952438354,
          "6": -0.42749741673469543,
          "7": -0.6048699021339417
        }
      },
      "48": {
        "bias": -0.7447501420974731,
        "weights": {
          "0": -0.15491998195648193,
          "1": -0.26641878485679626,
          "2": -0.4525398910045624,
          "3": -0.4970109462738037,
          "4": -0.1822129487991333,
          "5": -0.2616059184074402,
          "6": -0.36672866344451904,
          "7": -0.47301411628723145
        }
      },
      "49": {
        "bias": -0.5135387778282166,
        "weights": {
          "0": 0.3540308177471161,
          "1": -0.021553916856646538,
          "2": -0.19606244564056396,
          "3": -0.04359879344701767,
          "4": -0.04618562385439873,
          "5": -0.11663316935300827,
          "6": -0.41086557507514954,
          "7": -1.204205870628357
        }
      },
      "50": {
        "bias": -0.4092083275318146,
        "weights": {
          "0": 0.6145665645599365,
          "1": -0.08882702887058258,
          "2": -0.1175738200545311,
          "3": 0.05124560371041298,
          "4": 0.007746408227831125,
          "5": 0.19666165113449097,
          "6": -0.06908930093050003,
          "7": -1.6736552715301514
        }
      },
      "51": {
        "bias": -0.02557227574288845,
        "weights": {
          "0": 2.3526573181152344,
          "1": 6.537556171417236,
          "2": -6.692676067352295,
          "3": 6.839827537536621,
          "4": 1.5528239011764526,
          "5": -4.812768936157227,
          "6": -6.138649940490723,
          "7": -0.15571007132530212
        }
      },
      "52": {
        "bias": -0.7075392007827759,
        "weights": {
          "0": -0.6249610185623169,
          "1": 0.2590172588825226,
          "2": 0.19724124670028687,
          "3": -1.0797717571258545,
          "4": -0.33875903487205505,
          "5": -0.40161532163619995,
          "6": 0.1226937398314476,
          "7": -0.39823833107948303
        }
      },
      "53": {
        "bias": -0.5193374752998352,
        "weights": {
          "0": 0.01833433471620083,
          "1": -0.00036115487455390394,
          "2": -0.11721877008676529,
          "3": -0.4780702292919159,
          "4": -0.14887601137161255,
          "5": -0.5540369749069214,
          "6": -0.2459305226802826,
          "7": -0.6196945309638977
        }
      },
      "54": {
        "bias": -0.7818716168403625,
        "weights": {
          "0": -0.18054701387882233,
          "1": -0.11019668728113174,
          "2": -0.3388882875442505,
          "3": -0.42095011472702026,
          "4": -0.0478065125644207,
          "5": -0.44743233919143677,
          "6": -0.18704071640968323,
          "7": -0.49542710185050964
        }
      },
      "55": {
        "bias": -0.7129939794540405,
        "weights": {
          "0": -0.7682052850723267,
          "1": -0.8605627417564392,
          "2": -0.8140638470649719,
          "3": -0.9022382497787476,
          "4": -0.9849318861961365,
          "5": -0.2405976951122284,
          "6": -0.2863808870315552,
          "7": -1.30745267868042
        }
      },
      "56": {
        "bias": -0.6014321446418762,
        "weights": {
          "0": -0.31086820363998413,
          "1": -0.5520601272583008,
          "2": -0.5274656414985657,
          "3": -0.6720466017723083,
          "4": -0.5244160294532776,
          "5": -0.1473495066165924,
          "6": -0.6446471810340881,
          "7": -1.1527915000915527
        }
      },
      "57": {
        "bias": -0.6056563258171082,
        "weights": {
          "0": 0.6662242412567139,
          "1": 1.1984307765960693,
          "2": -1.2937260866165161,
          "3": 1.064292550086975,
          "4": -1.012071967124939,
          "5": 0.33013516664505005,
          "6": 0.03072502836585045,
          "7": -1.1237680912017822
        }
      },
      "58": {
        "bias": -0.5809653401374817,
        "weights": {
          "0": 0.45669928193092346,
          "1": -0.4404315948486328,
          "2": -0.03050784394145012,
          "3": -0.23631785809993744,
          "4": -0.17524532973766327,
          "5": -0.41616687178611755,
          "6": -0.46883952617645264,
          "7": -0.7165402173995972
        }
      },
      "59": {
        "bias": -0.6660585999488831,
        "weights": {
          "0": 0.016513468697667122,
          "1": -0.5584598779678345,
          "2": -0.10832545161247253,
          "3": -0.34945133328437805,
          "4": -0.31507524847984314,
          "5": -0.35398393869400024,
          "6": -0.43044644594192505,
          "7": -0.4139907658100128
        }
      },
      "60": {
        "bias": -2.8449552059173584,
        "weights": {
          "0": 0.9709117412567139,
          "1": 2.740703582763672,
          "2": 0.7814825773239136,
          "3": 2.757521390914917,
          "4": 2.0729551315307617,
          "5": 1.8950679302215576,
          "6": 1.4062966108322144,
          "7": -5.53345251083374
        }
      },
      "61": {
        "bias": -0.6038846373558044,
        "weights": {
          "0": -0.12299004942178726,
          "1": -0.1765756905078888,
          "2": -0.19853858649730682,
          "3": -0.289066344499588,
          "4": -0.13793763518333435,
          "5": -0.27737170457839966,
          "6": -0.43696609139442444,
          "7": -0.7074337601661682
        }
      },
      "62": {
        "bias": -0.6282316446304321,
        "weights": {
          "0": -0.28844010829925537,
          "1": -0.7495281100273132,
          "2": -0.7157230377197266,
          "3": -0.4959458112716675,
          "4": -0.5716243982315063,
          "5": -0.1628800928592682,
          "6": -0.6189199686050415,
          "7": -1.2163383960723877
        }
      },
      "63": {
        "bias": -0.7198284268379211,
        "weights": {
          "0": 0.07306680083274841,
          "1": -0.0005924625438638031,
          "2": -0.07227236032485962,
          "3": -0.15866968035697937,
          "4": -0.08419400453567505,
          "5": -0.28020334243774414,
          "6": -0.33315813541412354,
          "7": -0.8271468877792358
        }
      },
      "64": {
        "bias": -1.5342336893081665,
        "weights": {
          "0": 1.149483561515808,
          "1": -2.7577455043792725,
          "2": 4.1091628074646,
          "3": 1.820953369140625,
          "4": -7.221314907073975,
          "5": -1.6871916055679321,
          "6": 4.476027488708496,
          "7": -4.527784824371338
        }
      }
    },
    {
      "0": {
        "bias": 4.077927589416504,
        "weights": {
          "0": -2.5403635501861572,
          "1": 3.986510753631592,
          "2": 3.7345290184020996,
          "3": 0.21206630766391754,
          "4": -0.21588076651096344,
          "5": -1.5648905038833618,
          "6": -0.0321907214820385,
          "7": 0.11456277966499329,
          "8": 0.5221567153930664,
          "9": 0.018384862691164017,
          "10": -0.03695576265454292,
          "11": -0.096927709877491,
          "12": 0.17853444814682007,
          "13": -0.08358385413885117,
          "14": 0.11773978173732758,
          "15": 0.7605958580970764,
          "16": -1.5562881231307983,
          "17": 0.2931433618068695,
          "18": -0.11003746092319489,
          "19": 0.8352437615394592,
          "20": 1.003235101699829,
          "21": 0.7120501399040222,
          "22": 0.39582881331443787,
          "23": -1.3457860946655273,
          "24": 0.4577348530292511,
          "25": 5.952579021453857,
          "26": 0.8838812112808228,
          "27": -0.5432344079017639,
          "28": 0.17738905549049377,
          "29": 0.09438586980104446,
          "30": 9.933608055114746,
          "31": -0.05289128050208092,
          "32": -9.838164329528809,
          "33": -0.02115977182984352,
          "34": 0.06060877442359924,
          "35": -0.016428690403699875,
          "36": 0.11998099833726883,
          "37": 0.16786208748817444,
          "38": -3.3811473846435547,
          "39": 0.3056531846523285,
          "40": 1.506379246711731,
          "41": -0.23085831105709076,
          "42": 0.24100303649902344,
          "43": -0.14239969849586487,
          "44": -0.05399150028824806,
          "45": -0.0313776470720768,
          "46": 0.15955917537212372,
          "47": -0.21411912143230438,
          "48": 0.11624802649021149,
          "49": -0.033244550228118896,
          "50": -0.5004320740699768,
          "51": -7.339829444885254,
          "52": 0.8890053629875183,
          "53": 0.3699941039085388,
          "54": 0.3234541714191437,
          "55": 1.1922829151153564,
          "56": 0.6148366928100586,
          "57": -1.88088059425354,
          "58": -0.12400428205728531,
          "59": -0.14371858537197113,
          "60": -5.4600443840026855,
          "61": 0.20134879648685455,
          "62": 0.7528247237205505,
          "63": 0.20972312986850739,
          "64": -5.976089000701904
        }
      }
    }
  ],
  "outputLookup": false,
  "inputLookup": false,
  "activation": "sigmoid",
  "trainOpts": {
    "iterations": 20000,
    "errorThresh": 0.005,
    "log": true,
    "logPeriod": 10,
    "learningRate": 0.3,
    "momentum": 0.1,
    "callbackPeriod": 10,
    "beta1": 0.9,
    "beta2": 0.999,
    "epsilon": 1e-8
  }
}