{
  "sizes": [
    5,
    15,
    1
  ],
  "layers": [
    {
      "0": {},
      "1": {},
      "2": {},
      "3": {},
      "4": {}
    },
    {
      "0": {
        "bias": -0.18290552496910095,
        "weights": {
          "0": 0.9924429059028625,
          "1": -1.397016167640686,
          "2": -0.7546420693397522,
          "3": -0.5945860147476196,
          "4": 0.3624694049358368
        }
      },
      "1": {
        "bias": -0.2592867910861969,
        "weights": {
          "0": 0.33381569385528564,
          "1": -0.5100692510604858,
          "2": -0.13420747220516205,
          "3": -0.1924566626548767,
          "4": -0.27660709619522095
        }
      },
      "2": {
        "bias": -1.7071059942245483,
        "weights": {
          "0": 0.4411694407463074,
          "1": 1.8360689878463745,
          "2": 0.6135108470916748,
          "3": 2.676194906234741,
          "4": -4.154207229614258
        }
      },
      "3": {
        "bias": -0.3674735426902771,
        "weights": {
          "0": 0.13421116769313812,
          "1": -0.18975190818309784,
          "2": -0.13630804419517517,
          "3": -0.09556003659963608,
          "4": -0.1625983864068985
        }
      },
      "4": {
        "bias": -0.39182254672050476,
        "weights": {
          "0": -1.1927942037582397,
          "1": -5.490103721618652,
          "2": -5.088666915893555,
          "3": 4.365288257598877,
          "4": 2.7326576709747314
        }
      },
      "5": {
        "bias": -0.23286694288253784,
        "weights": {
          "0": 0.43255171179771423,
          "1": -1.0023928880691528,
          "2": -0.291520893573761,
          "3": -0.21857692301273346,
          "4": 0.15074200928211212
        }
      },
      "6": {
        "bias": -0.7869893908500671,
        "weights": {
          "0": 2.226301670074463,
          "1": -3.4039461612701416,
          "2": 3.135162115097046,
          "3": -3.2614169120788574,
          "4": 2.068601608276367
        }
      },
      "7": {
        "bias": -0.3470778167247772,
        "weights": {
          "0": 0.3718917667865753,
          "1": -0.5139824748039246,
          "2": -0.30158084630966187,
          "3": -0.09907285124063492,
          "4": -0.1485501080751419
        }
      },
      "8": {
        "bias": -0.574606716632843,
        "weights": {
          "0": -1.1470513343811035,
          "1": 1.8975759744644165,
          "2": 0.958581805229187,
          "3": -0.9834443926811218,
          "4": -0.3257271945476532
        }
      },
      "9": {
        "bias": -1.761297345161438,
        "weights": {
          "0": 3.5134270191192627,
          "1": 4.065318584442139,
          "2": 1.5073161125183105,
          "3": 0.6019852161407471,
          "4": 0.9011090993881226
        }
      },
      "10": {
        "bias": 0.19006489217281342,
        "weights": {
          "0": 0.6598888039588928,
          "1": -0.9456542134284973,
          "2": -0.6082607507705688,
          "3": -0.03148680925369263,
          "4": -0.056546516716480255
        }
      },
      "11": {
        "bias": -0.39740869402885437,
        "weights": {
          "0": 0.9592732191085815,
          "1": -0.3443373441696167,
          "2": -0.45085015892982483,
          "3": 0.48875465989112854,
          "4": -1.355412483215332
        }
      },
      "12": {
        "bias": -0.2875130772590637,
        "weights": {
          "0": -0.05503526329994202,
          "1": -0.041537970304489136,
          "2": 0.22755587100982666,
          "3": -0.3427428901195526,
          "4": -0.12230613082647324
        }
      },
      "13": {
        "bias": -0.5967876315116882,
        "weights": {
          "0": -1.0177557468414307,
          "1": 1.3300083875656128,
          "2": 0.9089793562889099,
          "3": -0.32556432485580444,
          "4": 0.021033775061368942
        }
      },
      "14": {
        "bias": -0.5996129512786865,
        "weights": {
          "0": -1.2561054229736328,
          "1": 1.2967474460601807,
          "2": 1.0914628505706787,
          "3": -0.20644709467887878,
          "4": 0.13375812768936157
        }
      }
    },
    {
      "0": {
        "bias": 0.03813242167234421,
        "weights": {
          "0": -1.8730201721191406,
          "1": -0.595963180065155,
          "2": -4.215848445892334,
          "3": -0.26872745156288147,
          "4": 8.779991149902344,
          "5": -1.127790927886963,
          "6": 5.324656009674072,
          "7": -0.7054130434989929,
          "8": 2.4006855487823486,
          "9": -5.69453763961792,
          "10": -1.3569440841674805,
          "11": -1.5761198997497559,
          "12": 0.05790999159216881,
          "13": 1.8115040063858032,
          "14": 1.9615188837051392
        }
      }
    }
  ],
  "outputLookup": false,
  "inputLookup": false,
  "activation": "sigmoid",
  "trainOpts": {
    "iterations": 20000,
    "errorThresh": 0.005,
    "log": true,
    "logPeriod": 10,
    "learningRate": 0.3,
    "momentum": 0.1,
    "callbackPeriod": 10,
    "beta1": 0.9,
    "beta2": 0.999,
    "epsilon": 1e-8
  }
}