{
  "sizes": [
    11,
    100,
    1
  ],
  "layers": [
    {
      "0": {},
      "1": {},
      "2": {},
      "3": {},
      "4": {},
      "5": {},
      "6": {},
      "7": {},
      "8": {},
      "9": {},
      "10": {}
    },
    {
      "0": {
        "bias": -1.0450470447540283,
        "weights": {
          "0": -0.3346497416496277,
          "1": -0.7278030514717102,
          "2": -0.7122729420661926,
          "3": -0.6322821974754333,
          "4": -0.7207757830619812,
          "5": -0.4827755093574524,
          "6": -0.5865030288696289,
          "7": -0.6424305438995361,
          "8": -0.5162887573242188,
          "9": -0.5493490695953369,
          "10": -0.6629244089126587
        }
      },
      "1": {
        "bias": -0.9343481063842773,
        "weights": {
          "0": -0.20484095811843872,
          "1": -0.3033071458339691,
          "2": -0.35547441244125366,
          "3": -0.1189529150724411,
          "4": -0.504263699054718,
          "5": -0.6524427533149719,
          "6": -0.4304604232311249,
          "7": -0.49216699600219727,
          "8": -0.39964455366134644,
          "9": -0.5489459037780762,
          "10": -0.8143225312232971
        }
      },
      "2": {
        "bias": -0.30272483825683594,
        "weights": {
          "0": -1.406219482421875,
          "1": -1.3441851139068604,
          "2": 1.8406200408935547,
          "3": -1.2470639944076538,
          "4": -1.512870192527771,
          "5": -1.5953131914138794,
          "6": -0.3381537199020386,
          "7": -2.4493772983551025,
          "8": 0.21386054158210754,
          "9": -1.6109254360198975,
          "10": -1.5809423923492432
        }
      },
      "3": {
        "bias": -0.7833696603775024,
        "weights": {
          "0": 0.7252523303031921,
          "1": -0.9298693537712097,
          "2": -0.4831666052341461,
          "3": -0.5098841786384583,
          "4": -1.0267441272735596,
          "5": 0.33582738041877747,
          "6": -0.8797302842140198,
          "7": -0.9802762866020203,
          "8": -1.3006668090820312,
          "9": -0.6370139122009277,
          "10": -0.47119298577308655
        }
      },
      "4": {
        "bias": 1.0987893342971802,
        "weights": {
          "0": -2.0972490310668945,
          "1": -2.135091543197632,
          "2": -5.041300296783447,
          "3": -2.7696690559387207,
          "4": -2.2255873680114746,
          "5": -0.905559241771698,
          "6": 1.322182059288025,
          "7": -4.021131992340088,
          "8": 0.4029959440231323,
          "9": -0.6768470406532288,
          "10": 0.8621591329574585
        }
      },
      "5": {
        "bias": -0.8928198218345642,
        "weights": {
          "0": 0.0794600173830986,
          "1": -1.0455142259597778,
          "2": -0.7979487180709839,
          "3": -0.8132191300392151,
          "4": -1.1356276273727417,
          "5": -0.09097233414649963,
          "6": -1.1897047758102417,
          "7": -1.4446849822998047,
          "8": -0.9779940843582153,
          "9": -0.08714340627193451,
          "10": -0.10990190505981445
        }
      },
      "6": {
        "bias": -0.8417296409606934,
        "weights": {
          "0": 0.015817556530237198,
          "1": -0.3528325855731964,
          "2": -0.7015873789787292,
          "3": -0.6772365570068359,
          "4": -0.7759052515029907,
          "5": -0.7259100675582886,
          "6": -0.1908867508172989,
          "7": -1.146468997001648,
          "8": -0.08365625888109207,
          "9": -0.34859171509742737,
          "10": -0.8828412890434265
        }
      },
      "7": {
        "bias": -0.9438956379890442,
        "weights": {
          "0": -0.005242188461124897,
          "1": -0.2708568274974823,
          "2": -0.6588323712348938,
          "3": -0.3149072229862213,
          "4": -0.9020086526870728,
          "5": -0.6958487629890442,
          "6": -0.24805782735347748,
          "7": -0.7721431255340576,
          "8": -0.32547518610954285,
          "9": -0.3149168789386749,
          "10": -0.9064381718635559
        }
      },
      "8": {
        "bias": -2.280184268951416,
        "weights": {
          "0": 5.813953399658203,
          "1": -2.839104652404785,
          "2": 3.9550111293792725,
          "3": -1.875196933746338,
          "4": -0.10974154621362686,
          "5": -4.276783466339111,
          "6": 6.4047932624816895,
          "7": 4.115297317504883,
          "8": -9.536903381347656,
          "9": -0.28285256028175354,
          "10": -1.9839789867401123
        }
      },
      "9": {
        "bias": -0.5940768718719482,
        "weights": {
          "0": 1.3176790475845337,
          "1": -3.161245822906494,
          "2": 2.367034673690796,
          "3": 2.5102429389953613,
          "4": 3.1511826515197754,
          "5": -1.3416192531585693,
          "6": -4.608198642730713,
          "7": 2.80246639251709,
          "8": -4.387223720550537,
          "9": -4.206151008605957,
          "10": -0.07059317827224731
        }
      },
      "10": {
        "bias": -1.0398846864700317,
        "weights": {
          "0": 0.0019152085296809673,
          "1": -0.4549954831600189,
          "2": -0.6729170680046082,
          "3": -0.48682692646980286,
          "4": -1.0062838792800903,
          "5": -0.5779210329055786,
          "6": -0.33265674114227295,
          "7": -0.8244674205780029,
          "8": -0.3807854652404785,
          "9": -0.4757535457611084,
          "10": -0.7287250757217407
        }
      },
      "11": {
        "bias": -0.7158775925636292,
        "weights": {
          "0": 0.5330262184143066,
          "1": -0.5301716923713684,
          "2": -0.2988795340061188,
          "3": -0.07486087083816528,
          "4": -0.42975735664367676,
          "5": 0.04883920028805733,
          "6": -0.1068202555179596,
          "7": -0.5352345108985901,
          "8": -0.6342169642448425,
          "9": -0.49658194184303284,
          "10": -1.5227835178375244
        }
      },
      "12": {
        "bias": -1.1823647022247314,
        "weights": {
          "0": -0.6284116506576538,
          "1": -0.7289173007011414,
          "2": -0.6533511877059937,
          "3": -0.3656013011932373,
          "4": -0.7961438894271851,
          "5": -0.580982506275177,
          "6": -0.5238719582557678,
          "7": -0.7999944090843201,
          "8": -0.4176134765148163,
          "9": -0.4415397644042969,
          "10": -0.5729150772094727
        }
      },
      "13": {
        "bias": -0.7909359931945801,
        "weights": {
          "0": -1.0797665119171143,
          "1": -0.8429055213928223,
          "2": -1.1723878383636475,
          "3": -0.1609930694103241,
          "4": -0.9268139004707336,
          "5": -1.3302745819091797,
          "6": -0.8223498463630676,
          "7": -0.5251162052154541,
          "8": -1.0290281772613525,
          "9": 0.12319318950176239,
          "10": -1.264892578125
        }
      },
      "14": {
        "bias": -0.6927492618560791,
        "weights": {
          "0": -0.5229383707046509,
          "1": -0.1893070936203003,
          "2": -0.4212324321269989,
          "3": 0.07141660153865814,
          "4": -0.6295573115348816,
          "5": -0.7437617778778076,
          "6": -0.5809528827667236,
          "7": -0.717435896396637,
          "8": -0.3106049597263336,
          "9": -0.6835281848907471,
          "10": -1.2529665231704712
        }
      },
      "15": {
        "bias": -0.06095627322793007,
        "weights": {
          "0": -2.289008140563965,
          "1": -0.48045778274536133,
          "2": -4.820516586303711,
          "3": 0.5960359573364258,
          "4": -0.6702464818954468,
          "5": 2.461780071258545,
          "6": 4.420541763305664,
          "7": -6.922796249389648,
          "8": 2.25516939163208,
          "9": -7.10719108581543,
          "10": -1.3518462181091309
        }
      },
      "16": {
        "bias": -0.4323045015335083,
        "weights": {
          "0": -0.20578895509243011,
          "1": -0.2595739960670471,
          "2": -0.2920205891132355,
          "3": -0.1720692664384842,
          "4": -0.09229777008295059,
          "5": -0.5100886821746826,
          "6": -0.38297709822654724,
          "7": -0.46589192748069763,
          "8": -0.00542024988681078,
          "9": -0.5124666094779968,
          "10": -1.3519905805587769
        }
      },
      "17": {
        "bias": 0.2130873203277588,
        "weights": {
          "0": -0.6821144819259644,
          "1": 0.50946044921875,
          "2": -1.8080036640167236,
          "3": -0.7969347834587097,
          "4": -2.5005288124084473,
          "5": -1.6957072019577026,
          "6": 1.0917942523956299,
          "7": -3.1224710941314697,
          "8": 0.09015833586454391,
          "9": -1.5936837196350098,
          "10": 0.3734317123889923
        }
      },
      "18": {
        "bias": -0.8597567081451416,
        "weights": {
          "0": 0.2837010622024536,
          "1": -0.2568646967411041,
          "2": -0.4769408702850342,
          "3": -0.15620572865009308,
          "4": -0.5741366744041443,
          "5": -0.4331280589103699,
          "6": 0.021357320249080658,
          "7": -0.6642359495162964,
          "8": -0.13901472091674805,
          "9": -0.23040059208869934,
          "10": -1.4891257286071777
        }
      },
      "19": {
        "bias": -0.4260863661766052,
        "weights": {
          "0": -0.3287355601787567,
          "1": -0.4303661286830902,
          "2": -1.0765825510025024,
          "3": 0.394711434841156,
          "4": -0.6335723996162415,
          "5": -0.5195971727371216,
          "6": -0.5183903574943542,
          "7": 0.08755829185247421,
          "8": 0.6460828185081482,
          "9": -0.5109007954597473,
          "10": -1.165636658668518
        }
      },
      "20": {
        "bias": -0.8909320831298828,
        "weights": {
          "0": -0.5343667268753052,
          "1": -0.4117591977119446,
          "2": -0.42077070474624634,
          "3": -0.24276766180992126,
          "4": -0.703669548034668,
          "5": -0.5659986138343811,
          "6": -0.4861414134502411,
          "7": -0.6155469417572021,
          "8": -0.29123455286026,
          "9": -0.661278486251831,
          "10": -1.0214420557022095
        }
      },
      "21": {
        "bias": -2.2409043312072754,
        "weights": {
          "0": 7.561038970947266,
          "1": -6.13826322555542,
          "2": 4.815640926361084,
          "3": -6.452186107635498,
          "4": 7.363941669464111,
          "5": -5.841915607452393,
          "6": 6.027995586395264,
          "7": -5.743433952331543,
          "8": 8.57088565826416,
          "9": -7.429285526275635,
          "10": -7.449717044830322
        }
      },
      "22": {
        "bias": 0.623868465423584,
        "weights": {
          "0": 1.0103833675384521,
          "1": -3.0731265544891357,
          "2": -2.8555166721343994,
          "3": 1.796148657798767,
          "4": 3.9046196937561035,
          "5": -1.6015307903289795,
          "6": -2.6844189167022705,
          "7": -10.201793670654297,
          "8": -7.500321388244629,
          "9": 4.462388515472412,
          "10": 0.8734886646270752
        }
      },
      "23": {
        "bias": -0.7074395418167114,
        "weights": {
          "0": 0.03477426618337631,
          "1": -0.4020770192146301,
          "2": -0.16424015164375305,
          "3": -0.054654888808727264,
          "4": -0.4061926603317261,
          "5": -0.2967044711112976,
          "6": -0.4144397974014282,
          "7": -0.34740588068962097,
          "8": -0.47362542152404785,
          "9": -0.20955587923526764,
          "10": -1.5460164546966553
        }
      },
      "24": {
        "bias": -0.7685796618461609,
        "weights": {
          "0": -0.18270757794380188,
          "1": -0.3464125096797943,
          "2": -0.5438045859336853,
          "3": 0.13007941842079163,
          "4": -0.3275311291217804,
          "5": -0.6552441120147705,
          "6": -0.32035911083221436,
          "7": -0.24703341722488403,
          "8": -0.08163224160671234,
          "9": -0.3097403943538666,
          "10": -0.9090604782104492
        }
      },
      "25": {
        "bias": -0.274156779050827,
        "weights": {
          "0": -0.2383979707956314,
          "1": -0.6992692947387695,
          "2": -1.1437914371490479,
          "3": 0.45551055669784546,
          "4": -0.2213851511478424,
          "5": -0.6568503379821777,
          "6": -0.43384280800819397,
          "7": 0.07905886322259903,
          "8": 0.020211266353726387,
          "9": -0.6228356957435608,
          "10": -0.7610392570495605
        }
      },
      "26": {
        "bias": -3.072075605392456,
        "weights": {
          "0": 4.205960750579834,
          "1": -2.5157604217529297,
          "2": 6.964848041534424,
          "3": -7.268815517425537,
          "4": 8.925605773925781,
          "5": -3.6344172954559326,
          "6": -1.382461428642273,
          "7": -6.573383331298828,
          "8": 4.831485748291016,
          "9": -1.7329838275909424,
          "10": -3.242940902709961
        }
      },
      "27": {
        "bias": -3.626828670501709,
        "weights": {
          "0": -2.18782377243042,
          "1": 4.462738513946533,
          "2": 6.451023101806641,
          "3": -4.374021053314209,
          "4": 0.9630941152572632,
          "5": -5.85218620300293,
          "6": -7.018099784851074,
          "7": -8.601093292236328,
          "8": 1.265783667564392,
          "9": 3.0599255561828613,
          "10": -0.6819820404052734
        }
      },
      "28": {
        "bias": -0.6204023361206055,
        "weights": {
          "0": -0.20101244747638702,
          "1": -0.4470890164375305,
          "2": -0.4474996328353882,
          "3": -0.08011537045240402,
          "4": -0.27863791584968567,
          "5": -0.6625028848648071,
          "6": -0.30561697483062744,
          "7": -0.42446836829185486,
          "8": -0.29292234778404236,
          "9": -0.29612913727760315,
          "10": -1.1888363361358643
        }
      },
      "29": {
        "bias": -2.1060969829559326,
        "weights": {
          "0": 7.403902530670166,
          "1": 2.3950555324554443,
          "2": 0.3197859525680542,
          "3": -3.7671456336975098,
          "4": -4.6690897941589355,
          "5": 4.417277812957764,
          "6": 0.9786262512207031,
          "7": -3.357382297515869,
          "8": -8.014657974243164,
          "9": -4.929683685302734,
          "10": -2.434209108352661
        }
      },
      "30": {
        "bias": -0.9076917171478271,
        "weights": {
          "0": 0.0623021200299263,
          "1": -0.5503940582275391,
          "2": -0.7985306978225708,
          "3": -0.4752568006515503,
          "4": -0.9567611813545227,
          "5": -0.5815592408180237,
          "6": -0.4416497051715851,
          "7": -1.0553398132324219,
          "8": -0.37939682602882385,
          "9": -0.5213772654533386,
          "10": -0.7145217061042786
        }
      },
      "31": {
        "bias": -0.44255775213241577,
        "weights": {
          "0": -0.9141092300415039,
          "1": -0.9740848541259766,
          "2": -0.16416232287883759,
          "3": -0.7863561511039734,
          "4": -1.1726018190383911,
          "5": -1.200461983680725,
          "6": -0.6664929389953613,
          "7": -0.45079001784324646,
          "8": -0.4844662845134735,
          "9": -0.7346751689910889,
          "10": -1.7834051847457886
        }
      },
      "32": {
        "bias": -0.86964350938797,
        "weights": {
          "0": -0.09292057901620865,
          "1": -0.2994958162307739,
          "2": -0.5524583458900452,
          "3": -0.320467472076416,
          "4": -0.5648438334465027,
          "5": -0.7156232595443726,
          "6": -0.32388660311698914,
          "7": -0.7912660837173462,
          "8": -0.12741006910800934,
          "9": -0.3221980035305023,
          "10": -0.9877421259880066
        }
      },
      "33": {
        "bias": -1.0346794128417969,
        "weights": {
          "0": 0.0182800255715847,
          "1": -0.49840423464775085,
          "2": -0.40520238876342773,
          "3": -0.2505885064601898,
          "4": -0.6231793165206909,
          "5": -0.5618004202842712,
          "6": -0.5262542366981506,
          "7": -0.5583187937736511,
          "8": -0.5038623213768005,
          "9": -0.3602991998195648,
          "10": -0.7561370134353638
        }
      },
      "34": {
        "bias": -7.200933456420898,
        "weights": {
          "0": -2.8955016136169434,
          "1": 2.879126787185669,
          "2": -2.3154265880584717,
          "3": -4.471079349517822,
          "4": 3.6780216693878174,
          "5": 0.9308332204818726,
          "6": 6.700843334197998,
          "7": -2.018771171569824,
          "8": 3.791588544845581,
          "9": 6.3041253089904785,
          "10": -6.616860866546631
        }
      },
      "35": {
        "bias": 0.2655221223831177,
        "weights": {
          "0": -4.338908672332764,
          "1": -6.960078716278076,
          "2": -4.351134300231934,
          "3": -6.179098606109619,
          "4": -1.407993197441101,
          "5": -8.836078643798828,
          "6": -1.2469630241394043,
          "7": -5.926387786865234,
          "8": 0.9503665566444397,
          "9": 5.933475971221924,
          "10": -2.4038102626800537
        }
      },
      "36": {
        "bias": -3.876426935195923,
        "weights": {
          "0": -1.358399748802185,
          "1": -3.268538236618042,
          "2": 7.493319988250732,
          "3": 4.5074462890625,
          "4": -4.37492561340332,
          "5": -3.2978107929229736,
          "6": -8.700519561767578,
          "7": 2.343961000442505,
          "8": 10.418784141540527,
          "9": -3.7049713134765625,
          "10": -5.533736705780029
        }
      },
      "37": {
        "bias": -0.7786427736282349,
        "weights": {
          "0": 0.9412768483161926,
          "1": -0.7488749623298645,
          "2": -0.043095678091049194,
          "3": -0.06802216172218323,
          "4": -0.0827791690826416,
          "5": 0.4389316439628601,
          "6": 0.04212484508752823,
          "7": -0.2331342101097107,
          "8": -0.1623840034008026,
          "9": -0.21638250350952148,
          "10": -2.2136499881744385
        }
      },
      "38": {
        "bias": -0.7365954518318176,
        "weights": {
          "0": 0.8697207570075989,
          "1": -1.3472087383270264,
          "2": -0.8090851306915283,
          "3": -1.0634909868240356,
          "4": -1.1637377738952637,
          "5": 0.5287186503410339,
          "6": -1.3524702787399292,
          "7": -1.35197913646698,
          "8": -1.2528194189071655,
          "9": 0.09118327498435974,
          "10": -0.16160452365875244
        }
      },
      "39": {
        "bias": -1.077515721321106,
        "weights": {
          "0": -0.029814578592777252,
          "1": -0.5690310597419739,
          "2": -0.4855481684207916,
          "3": -0.31254175305366516,
          "4": -0.631549060344696,
          "5": -0.4173832833766937,
          "6": -0.4546078145503998,
          "7": -0.8255146741867065,
          "8": -0.3084573447704315,
          "9": -0.2302975207567215,
          "10": -0.8360693454742432
        }
      },
      "40": {
        "bias": 1.0584816932678223,
        "weights": {
          "0": -2.45172381401062,
          "1": -3.5405588150024414,
          "2": -2.5714194774627686,
          "3": -2.8204259872436523,
          "4": -1.4036775827407837,
          "5": -3.8799946308135986,
          "6": -0.14250317215919495,
          "7": -4.8368425369262695,
          "8": -0.5012824535369873,
          "9": 2.7051491737365723,
          "10": 1.671786904335022
        }
      },
      "41": {
        "bias": -0.9259220361709595,
        "weights": {
          "0": -0.04973497614264488,
          "1": -0.7614971995353699,
          "2": -0.7122748494148254,
          "3": -0.4941437244415283,
          "4": -0.6811090111732483,
          "5": -0.3377329707145691,
          "6": -0.744753897190094,
          "7": -0.9666740894317627,
          "8": -0.5430758595466614,
          "9": -0.47041022777557373,
          "10": -0.6956673860549927
        }
      },
      "42": {
        "bias": -0.7562384605407715,
        "weights": {
          "0": -0.23325467109680176,
          "1": 0.18501104414463043,
          "2": -0.727469801902771,
          "3": -0.5390871167182922,
          "4": -1.2352607250213623,
          "5": -1.0233197212219238,
          "6": -0.22031554579734802,
          "7": -0.5644800662994385,
          "8": 0.1770702451467514,
          "9": 0.4800371527671814,
          "10": -1.6139589548110962
        }
      },
      "43": {
        "bias": -0.876441478729248,
        "weights": {
          "0": -0.2183617353439331,
          "1": -0.4956470727920532,
          "2": -0.5639308094978333,
          "3": -0.07981577515602112,
          "4": -0.4910505712032318,
          "5": -0.5097278356552124,
          "6": -0.2566237151622772,
          "7": -0.6835463047027588,
          "8": -0.3221386969089508,
          "9": -0.4045421779155731,
          "10": -0.9816610813140869
        }
      },
      "44": {
        "bias": -0.8233232498168945,
        "weights": {
          "0": -0.17605432868003845,
          "1": -0.36659523844718933,
          "2": -0.6360070109367371,
          "3": -0.23908697068691254,
          "4": -0.5619495511054993,
          "5": -0.7397065758705139,
          "6": -0.40809521079063416,
          "7": -0.5643963813781738,
          "8": -0.3687353730201721,
          "9": -0.5410836338996887,
          "10": -0.9015486836433411
        }
      },
      "45": {
        "bias": 0.11285160481929779,
        "weights": {
          "0": -2.2974417209625244,
          "1": -2.691131114959717,
          "2": 4.15320348739624,
          "3": -1.396991491317749,
          "4": -3.2897045612335205,
          "5": -1.1031129360198975,
          "6": -0.5926830768585205,
          "7": -5.157154083251953,
          "8": 0.651045024394989,
          "9": -0.8799659609794617,
          "10": -2.3514387607574463
        }
      },
      "46": {
        "bias": -0.9746178984642029,
        "weights": {
          "0": 0.2605332136154175,
          "1": -0.39500123262405396,
          "2": -0.6017480492591858,
          "3": -0.3971637487411499,
          "4": -0.6231998801231384,
          "5": -0.3550078868865967,
          "6": -0.46828025579452515,
          "7": -0.8903377652168274,
          "8": -0.4805534780025482,
          "9": -0.27553823590278625,
          "10": -0.8764817118644714
        }
      },
      "47": {
        "bias": -0.9007840752601624,
        "weights": {
          "0": -0.7075298428535461,
          "1": -0.45274367928504944,
          "2": -0.5449510812759399,
          "3": -0.4403183162212372,
          "4": -0.7040272951126099,
          "5": -0.7717723846435547,
          "6": -0.5083484649658203,
          "7": -0.40557894110679626,
          "8": -0.5325617790222168,
          "9": -0.7580273747444153,
          "10": -0.9414507150650024
        }
      },
      "48": {
        "bias": -0.9605566263198853,
        "weights": {
          "0": -0.09798478335142136,
          "1": -0.5561720132827759,
          "2": -0.44503024220466614,
          "3": -0.2350570112466812,
          "4": -0.42212510108947754,
          "5": -0.4498409330844879,
          "6": -0.39819198846817017,
          "7": -0.667945921421051,
          "8": -0.35542696714401245,
          "9": -0.2975764274597168,
          "10": -0.9355087280273438
        }
      },
      "49": {
        "bias": -7.126582622528076,
        "weights": {
          "0": -4.795126914978027,
          "1": 5.687624454498291,
          "2": -4.403683662414551,
          "3": -9.30459976196289,
          "4": 7.299346446990967,
          "5": 5.2146172523498535,
          "6": -6.037391185760498,
          "7": 5.594730377197266,
          "8": 8.002869606018066,
          "9": -10.99807357788086,
          "10": -7.1852641105651855
        }
      },
      "50": {
        "bias": -0.9414921402931213,
        "weights": {
          "0": -0.13826952874660492,
          "1": -0.5007455945014954,
          "2": -0.542612612247467,
          "3": 0.07895389944314957,
          "4": -0.301372766494751,
          "5": -0.44825899600982666,
          "6": 0.09591049700975418,
          "7": -0.46152469515800476,
          "8": 0.4082253575325012,
          "9": -0.30031096935272217,
          "10": -1.9210065603256226
        }
      },
      "51": {
        "bias": -3.29433012008667,
        "weights": {
          "0": -3.154179811477661,
          "1": -1.5183422565460205,
          "2": 9.456460952758789,
          "3": -1.2169129848480225,
          "4": 6.668100357055664,
          "5": 3.9082765579223633,
          "6": -6.338929653167725,
          "7": -2.0420420169830322,
          "8": -8.13292121887207,
          "9": -3.4705588817596436,
          "10": -7.650394439697266
        }
      },
      "52": {
        "bias": 0.6385748386383057,
        "weights": {
          "0": -1.9053771495819092,
          "1": -1.3870564699172974,
          "2": -0.000703575205989182,
          "3": -1.7198524475097656,
          "4": -2.0395867824554443,
          "5": -1.9248251914978027,
          "6": -1.9032211303710938,
          "7": -0.8581954836845398,
          "8": 0.11186305433511734,
          "9": -0.30411651730537415,
          "10": -2.875030755996704
        }
      },
      "53": {
        "bias": -1.085358738899231,
        "weights": {
          "0": 0.06225384399294853,
          "1": -0.812815248966217,
          "2": -0.7797896862030029,
          "3": -0.5294445157051086,
          "4": -0.890251636505127,
          "5": -0.3365258276462555,
          "6": -0.8841854333877563,
          "7": -0.9216728806495667,
          "8": -0.7531787157058716,
          "9": -0.2553386688232422,
          "10": -0.5065315961837769
        }
      },
      "54": {
        "bias": -1.0418623685836792,
        "weights": {
          "0": -0.038960184901952744,
          "1": -0.7118191719055176,
          "2": -0.7163745164871216,
          "3": -0.5575785040855408,
          "4": -0.6392397284507751,
          "5": -0.347658634185791,
          "6": -0.7115280628204346,
          "7": -1.081918716430664,
          "8": -0.5764780044555664,
          "9": -0.20619843900203705,
          "10": -0.5431802868843079
        }
      },
      "55": {
        "bias": -0.9222383499145508,
        "weights": {
          "0": -0.11275804787874222,
          "1": -0.5783523321151733,
          "2": -0.6165850162506104,
          "3": -0.3229093551635742,
          "4": -0.684897243976593,
          "5": -0.5213252902030945,
          "6": -0.4990556836128235,
          "7": -0.8754074573516846,
          "8": -0.37659698724746704,
          "9": -0.3068404793739319,
          "10": -0.8406528234481812
        }
      },
      "56": {
        "bias": -0.6955704689025879,
        "weights": {
          "0": -0.09072878956794739,
          "1": -0.3035440444946289,
          "2": -0.3514174222946167,
          "3": -0.19487980008125305,
          "4": -0.4244738221168518,
          "5": -0.6721543669700623,
          "6": -0.24306657910346985,
          "7": -0.4616243243217468,
          "8": -0.3625020384788513,
          "9": -0.6277061700820923,
          "10": -1.1417105197906494
        }
      },
      "57": {
        "bias": -1.1172587871551514,
        "weights": {
          "0": 0.19772249460220337,
          "1": -0.6316695809364319,
          "2": -0.44930940866470337,
          "3": -0.1865566223859787,
          "4": -0.7188515663146973,
          "5": -0.46125125885009766,
          "6": -0.45991250872612,
          "7": -0.677807092666626,
          "8": -0.46071767807006836,
          "9": -0.3941881060600281,
          "10": -0.7566240429878235
        }
      },
      "58": {
        "bias": -0.9731031060218811,
        "weights": {
          "0": -0.11886285990476608,
          "1": -0.5223760008811951,
          "2": -0.3286656141281128,
          "3": -0.2225535660982132,
          "4": -0.5871375799179077,
          "5": -0.5682225227355957,
          "6": -0.270636647939682,
          "7": -0.4748585522174835,
          "8": -0.4071528911590576,
          "9": -0.3707684576511383,
          "10": -0.8702959418296814
        }
      },
      "59": {
        "bias": -4.735551357269287,
        "weights": {
          "0": 0.7757225632667542,
          "1": 1.5980724096298218,
          "2": 4.699538707733154,
          "3": 1.4775727987289429,
          "4": -5.911962032318115,
          "5": -4.3697309494018555,
          "6": 6.013661861419678,
          "7": 2.240204095840454,
          "8": 3.2681355476379395,
          "9": 0.0898449644446373,
          "10": -8.704354286193848
        }
      },
      "60": {
        "bias": -0.7929815649986267,
        "weights": {
          "0": -0.16359169781208038,
          "1": -0.26624220609664917,
          "2": -0.42645522952079773,
          "3": -0.08647783100605011,
          "4": -0.34042826294898987,
          "5": -0.5565934181213379,
          "6": -0.3114601671695709,
          "7": -0.22160354256629944,
          "8": 0.023627879098057747,
          "9": -0.0798911303281784,
          "10": -1.329167127609253
        }
      },
      "61": {
        "bias": -0.8520859479904175,
        "weights": {
          "0": -0.17393574118614197,
          "1": -0.3336731195449829,
          "2": -0.5141478776931763,
          "3": -0.22397927939891815,
          "4": -0.6181190609931946,
          "5": -0.5784622430801392,
          "6": -0.34784379601478577,
          "7": -0.6730160117149353,
          "8": -0.3311048448085785,
          "9": -0.48587265610694885,
          "10": -0.9434041380882263
        }
      },
      "62": {
        "bias": -0.4311130940914154,
        "weights": {
          "0": -0.1502881795167923,
          "1": -0.7335881590843201,
          "2": -1.2313789129257202,
          "3": 0.5421839952468872,
          "4": -0.03282859921455383,
          "5": -0.7486832141876221,
          "6": -0.5876028537750244,
          "7": 0.07893171906471252,
          "8": 0.1705549955368042,
          "9": -0.44752365350723267,
          "10": -0.4651302993297577
        }
      },
      "63": {
        "bias": -0.8693260550498962,
        "weights": {
          "0": 0.052533186972141266,
          "1": -0.28688374161720276,
          "2": -0.35357165336608887,
          "3": -0.057000454515218735,
          "4": -0.503611147403717,
          "5": -0.5421252250671387,
          "6": -0.2208307534456253,
          "7": -0.4762505292892456,
          "8": -0.18691006302833557,
          "9": -0.3264433741569519,
          "10": -1.14442777633667
        }
      },
      "64": {
        "bias": -0.9300456643104553,
        "weights": {
          "0": 0.19873371720314026,
          "1": -0.4324619472026825,
          "2": -0.41785287857055664,
          "3": -0.06738171726465225,
          "4": -0.6306055188179016,
          "5": -0.48281002044677734,
          "6": -0.1490328460931778,
          "7": -0.4368745982646942,
          "8": -0.23762306571006775,
          "9": -0.1378236711025238,
          "10": -1.3462101221084595
        }
      },
      "65": {
        "bias": -0.660551905632019,
        "weights": {
          "0": 0.004353753291070461,
          "1": -0.24470074474811554,
          "2": -0.4276227653026581,
          "3": -0.10340450704097748,
          "4": -0.42659127712249756,
          "5": -0.6199905872344971,
          "6": -0.31403106451034546,
          "7": -0.5270622968673706,
          "8": -0.28760769963264465,
          "9": -0.5539065003395081,
          "10": -1.2055799961090088
        }
      },
      "66": {
        "bias": -0.26499274373054504,
        "weights": {
          "0": -0.216830775141716,
          "1": -0.501772403717041,
          "2": -1.0405988693237305,
          "3": 0.26645034551620483,
          "4": -0.19744522869586945,
          "5": -0.4164758324623108,
          "6": -0.4862479269504547,
          "7": 0.036890871822834015,
          "8": 0.2777532935142517,
          "9": -0.47991040349006653,
          "10": -0.9710019826889038
        }
      },
      "67": {
        "bias": -0.7326494455337524,
        "weights": {
          "0": -0.3812945783138275,
          "1": -0.42327880859375,
          "2": -0.5072206854820251,
          "3": -0.21483369171619415,
          "4": -0.5552621483802795,
          "5": -0.8072342872619629,
          "6": -0.3699497580528259,
          "7": -0.6209210753440857,
          "8": -0.5198869705200195,
          "9": -0.5624493360519409,
          "10": -0.9514508843421936
        }
      },
      "68": {
        "bias": -0.7166948914527893,
        "weights": {
          "0": 0.2806074917316437,
          "1": -0.40055108070373535,
          "2": -0.4721753001213074,
          "3": -0.13137759268283844,
          "4": -0.5128607749938965,
          "5": -0.3703523576259613,
          "6": -0.14973239600658417,
          "7": -0.6563489437103271,
          "8": -0.2909161448478699,
          "9": -0.32056859135627747,
          "10": -1.4137568473815918
        }
      },
      "69": {
        "bias": -0.803264856338501,
        "weights": {
          "0": -0.3925153911113739,
          "1": -0.3831808567047119,
          "2": -0.597449004650116,
          "3": 0.048153799027204514,
          "4": -0.46826714277267456,
          "5": -0.8081405162811279,
          "6": -0.2930874526500702,
          "7": -0.38334718346595764,
          "8": -0.5184264779090881,
          "9": -0.40903982520103455,
          "10": -1.0804111957550049
        }
      },
      "70": {
        "bias": -0.0923953503370285,
        "weights": {
          "0": -1.4142273664474487,
          "1": -0.9534227252006531,
          "2": -0.6121523976325989,
          "3": -0.5639201402664185,
          "4": -1.416043758392334,
          "5": -1.4427571296691895,
          "6": -0.9574019908905029,
          "7": -0.6330825090408325,
          "8": -0.7438769936561584,
          "9": -0.19858163595199585,
          "10": -1.983973503112793
        }
      },
      "71": {
        "bias": -0.871591329574585,
        "weights": {
          "0": -0.6585512161254883,
          "1": -0.7307373285293579,
          "2": -0.6957317590713501,
          "3": -0.44037577509880066,
          "4": -0.6159456968307495,
          "5": -1.0699238777160645,
          "6": -0.578349769115448,
          "7": -0.21449075639247894,
          "8": -0.8024407625198364,
          "9": -0.4689820408821106,
          "10": -1.096487283706665
        }
      },
      "72": {
        "bias": -0.8007301092147827,
        "weights": {
          "0": -0.16668525338172913,
          "1": -0.41213423013687134,
          "2": -0.47411540150642395,
          "3": -0.2247808426618576,
          "4": -0.3568139970302582,
          "5": -0.448728084564209,
          "6": -0.47068846225738525,
          "7": -0.5912622809410095,
          "8": -0.27839842438697815,
          "9": -0.4142472743988037,
          "10": -1.1743782758712769
        }
      },
      "73": {
        "bias": -0.9083174467086792,
        "weights": {
          "0": 5.05355978012085,
          "1": 2.138650417327881,
          "2": -3.5077078342437744,
          "3": -4.043315410614014,
          "4": 3.723982572555542,
          "5": -3.236560106277466,
          "6": -5.993919372558594,
          "7": 2.281916618347168,
          "8": -2.6179683208465576,
          "9": 0.8430987000465393,
          "10": -0.029696205630898476
        }
      },
      "74": {
        "bias": 1.8907647132873535,
        "weights": {
          "0": 3.6345818042755127,
          "1": -7.5662970542907715,
          "2": -4.926543712615967,
          "3": -7.615495204925537,
          "4": 5.065824031829834,
          "5": -4.69398307800293,
          "6": 0.1192999929189682,
          "7": -6.707583904266357,
          "8": 1.3303571939468384,
          "9": -10.928638458251953,
          "10": 2.178170680999756
        }
      },
      "75": {
        "bias": -0.5739726424217224,
        "weights": {
          "0": -0.17598973214626312,
          "1": -0.0550929494202137,
          "2": -0.23216953873634338,
          "3": -0.07019548118114471,
          "4": -0.4106285870075226,
          "5": -0.35118380188941956,
          "6": -0.501105785369873,
          "7": -0.21368268132209778,
          "8": -0.07711372524499893,
          "9": -0.3406790792942047,
          "10": -1.4517625570297241
        }
      },
      "76": {
        "bias": -0.6595836281776428,
        "weights": {
          "0": -0.10606886446475983,
          "1": -0.051191169768571854,
          "2": -0.37508806586265564,
          "3": -0.07681119441986084,
          "4": -0.3232004642486572,
          "5": -0.44186317920684814,
          "6": -0.42758995294570923,
          "7": -0.31588441133499146,
          "8": -0.08212191611528397,
          "9": -0.5830470323562622,
          "10": -1.2848052978515625
        }
      },
      "77": {
        "bias": -1.741194248199463,
        "weights": {
          "0": -4.42603063583374,
          "1": -2.0798897743225098,
          "2": 0.11987455934286118,
          "3": -0.3286750912666321,
          "4": -5.124510765075684,
          "5": -7.082126617431641,
          "6": 2.0898797512054443,
          "7": 1.3937106132507324,
          "8": 4.646406173706055,
          "9": -6.622861862182617,
          "10": -3.7642884254455566
        }
      },
      "78": {
        "bias": -1.309272050857544,
        "weights": {
          "0": -9.802482604980469,
          "1": -4.430180072784424,
          "2": -11.305468559265137,
          "3": 9.974223136901855,
          "4": 7.015249252319336,
          "5": -5.984776020050049,
          "6": 5.875309467315674,
          "7": 12.137393951416016,
          "8": -10.382946968078613,
          "9": -5.342687606811523,
          "10": -8.077523231506348
        }
      },
      "79": {
        "bias": -0.6743128299713135,
        "weights": {
          "0": -0.22571611404418945,
          "1": -0.3348875045776367,
          "2": -0.5734175443649292,
          "3": 0.08256920427083969,
          "4": -0.5248224139213562,
          "5": -0.5119146108627319,
          "6": -0.2951301336288452,
          "7": -0.4234279692173004,
          "8": -0.24684195220470428,
          "9": -0.46654337644577026,
          "10": -1.323533535003662
        }
      },
      "80": {
        "bias": -0.9805159568786621,
        "weights": {
          "0": -0.17930956184864044,
          "1": -0.5141830444335938,
          "2": -0.434021919965744,
          "3": -0.2908041179180145,
          "4": -0.5483399033546448,
          "5": -0.4466981887817383,
          "6": -0.5608530044555664,
          "7": -0.7997326850891113,
          "8": -0.3735317289829254,
          "9": -0.38428258895874023,
          "10": -0.7892557978630066
        }
      },
      "81": {
        "bias": -1.0252453088760376,
        "weights": {
          "0": 0.11923662573099136,
          "1": -0.3457978367805481,
          "2": -0.4180889129638672,
          "3": -0.04876686632633209,
          "4": -0.5057483315467834,
          "5": -0.6741907000541687,
          "6": -0.36987242102622986,
          "7": -0.45327964425086975,
          "8": -0.47952646017074585,
          "9": -0.3547556400299072,
          "10": -0.8691369295120239
        }
      },
      "82": {
        "bias": -9.37263298034668,
        "weights": {
          "0": -0.038584399968385696,
          "1": 5.911656856536865,
          "2": 1.4034955501556396,
          "3": 6.444498538970947,
          "4": -4.799485683441162,
          "5": 4.92733907699585,
          "6": 3.4258644580841064,
          "7": -3.5674781799316406,
          "8": 1.730485439300537,
          "9": 5.817768573760986,
          "10": -11.510618209838867
        }
      },
      "83": {
        "bias": -0.5663918256759644,
        "weights": {
          "0": -0.0575702004134655,
          "1": -0.2321327179670334,
          "2": -0.5543848276138306,
          "3": -0.0723930075764656,
          "4": -0.16836191713809967,
          "5": -0.53177410364151,
          "6": -0.1313401758670807,
          "7": -0.3943788707256317,
          "8": 0.05170678719878197,
          "9": -0.34073781967163086,
          "10": -1.2242426872253418
        }
      },
      "84": {
        "bias": -1.0148338079452515,
        "weights": {
          "0": -0.24761874973773956,
          "1": -0.6661292910575867,
          "2": -0.45014533400535583,
          "3": -0.3621378540992737,
          "4": -0.7802789807319641,
          "5": -0.7434096932411194,
          "6": -0.48446834087371826,
          "7": -0.43506377935409546,
          "8": -0.2836148142814636,
          "9": -0.6521666646003723,
          "10": -0.892918050289154
        }
      },
      "85": {
        "bias": -0.6673805713653564,
        "weights": {
          "0": 0.5312734842300415,
          "1": -0.984362006187439,
          "2": -0.6489240527153015,
          "3": -0.6712759137153625,
          "4": -1.154162049293518,
          "5": 0.000028213988116476685,
          "6": -0.8980817198753357,
          "7": -1.2246218919754028,
          "8": -0.910557210445404,
          "9": -0.21394358575344086,
          "10": -0.5128800272941589
        }
      },
      "86": {
        "bias": -0.9048762917518616,
        "weights": {
          "0": -0.04165416210889816,
          "1": -0.3871091306209564,
          "2": -0.5244566798210144,
          "3": -0.24262356758117676,
          "4": -0.7447435259819031,
          "5": -0.687140166759491,
          "6": -0.4324580430984497,
          "7": -0.8079000115394592,
          "8": -0.4063723683357239,
          "9": -0.4436684250831604,
          "10": -0.7364901900291443
        }
      },
      "87": {
        "bias": -1.1021146774291992,
        "weights": {
          "0": -0.41577643156051636,
          "1": -0.62152498960495,
          "2": -0.5089616775512695,
          "3": -0.38274306058883667,
          "4": -0.8493973612785339,
          "5": -0.5901807546615601,
          "6": -0.4073942303657532,
          "7": -0.5802846550941467,
          "8": -0.5790166854858398,
          "9": -0.41010788083076477,
          "10": -0.6036481261253357
        }
      },
      "88": {
        "bias": -1.3749288320541382,
        "weights": {
          "0": -2.058872699737549,
          "1": 0.36228322982788086,
          "2": -5.7563862800598145,
          "3": -0.45442914962768555,
          "4": -3.3103675842285156,
          "5": -1.782991647720337,
          "6": 3.2511327266693115,
          "7": -6.34867525100708,
          "8": -3.876211404800415,
          "9": 4.095570087432861,
          "10": -2.9886627197265625
        }
      },
      "89": {
        "bias": -0.9854217767715454,
        "weights": {
          "0": 0.12510551512241364,
          "1": -0.6127035021781921,
          "2": -0.6390854120254517,
          "3": -0.4029534161090851,
          "4": -0.809853196144104,
          "5": -0.503216564655304,
          "6": -0.694658637046814,
          "7": -0.8092208504676819,
          "8": -0.5028628706932068,
          "9": -0.49553588032722473,
          "10": -0.7039111852645874
        }
      },
      "90": {
        "bias": -0.5143453478813171,
        "weights": {
          "0": -0.13375459611415863,
          "1": -0.23798289895057678,
          "2": -0.536945104598999,
          "3": -0.036102719604969025,
          "4": -0.2934565246105194,
          "5": -0.5382530093193054,
          "6": -0.3575533926486969,
          "7": -0.18466931581497192,
          "8": 0.043794844299554825,
          "9": -0.395693302154541,
          "10": -1.1392881870269775
        }
      },
      "91": {
        "bias": -0.5963388681411743,
        "weights": {
          "0": -0.3811567425727844,
          "1": -4.135112762451172,
          "2": -0.7963146567344666,
          "3": 2.2666172981262207,
          "4": 4.559754371643066,
          "5": -4.624149322509766,
          "6": 1.735155701637268,
          "7": 3.4900684356689453,
          "8": -5.967950344085693,
          "9": -1.482778549194336,
          "10": -1.6229159832000732
        }
      },
      "92": {
        "bias": -0.8031702637672424,
        "weights": {
          "0": -0.39420264959335327,
          "1": -0.2491820603609085,
          "2": -0.3519074618816376,
          "3": -0.12272415310144424,
          "4": -0.580192506313324,
          "5": -0.6097437739372253,
          "6": -0.3925739824771881,
          "7": -0.4433836340904236,
          "8": -0.402213990688324,
          "9": -0.48801296949386597,
          "10": -1.2193357944488525
        }
      },
      "93": {
        "bias": -0.755024790763855,
        "weights": {
          "0": 0.8659990429878235,
          "1": -1.0306066274642944,
          "2": -1.0002079010009766,
          "3": -0.9366995096206665,
          "4": -1.0669465065002441,
          "5": 0.23922422528266907,
          "6": -1.3400012254714966,
          "7": -1.3298702239990234,
          "8": -1.2519488334655762,
          "9": -0.0349840447306633,
          "10": -0.21658536791801453
        }
      },
      "94": {
        "bias": -0.8319635987281799,
        "weights": {
          "0": -0.0032738978043198586,
          "1": -0.2921730577945709,
          "2": -0.41570940613746643,
          "3": -0.2849907875061035,
          "4": -0.6232010722160339,
          "5": -0.6408661007881165,
          "6": -0.36271920800209045,
          "7": -0.49993109703063965,
          "8": -0.42840641736984253,
          "9": -0.5184367299079895,
          "10": -0.9630089998245239
        }
      },
      "95": {
        "bias": -0.7180935144424438,
        "weights": {
          "0": -0.22792889177799225,
          "1": -0.2506053149700165,
          "2": -0.29111528396606445,
          "3": -0.29821231961250305,
          "4": -0.46285074949264526,
          "5": -0.7056583762168884,
          "6": -0.4105328619480133,
          "7": -0.5173314809799194,
          "8": -0.4860476553440094,
          "9": -0.5502581596374512,
          "10": -1.1386408805847168
        }
      },
      "96": {
        "bias": -1.0009357929229736,
        "weights": {
          "0": 1.1526302099227905,
          "1": -0.4992683231830597,
          "2": -0.2093479335308075,
          "3": -0.2058667540550232,
          "4": -0.6336672306060791,
          "5": -0.002876728307455778,
          "6": -0.3601236343383789,
          "7": -0.4050004780292511,
          "8": -0.5708081722259521,
          "9": 0.05146924406290054,
          "10": -1.7141083478927612
        }
      },
      "97": {
        "bias": -0.8499725461006165,
        "weights": {
          "0": -0.20813687145709991,
          "1": -0.41778600215911865,
          "2": -0.2073286473751068,
          "3": 0.010524068027734756,
          "4": -0.22343914210796356,
          "5": -0.448909729719162,
          "6": -0.5206942558288574,
          "7": -0.2636198103427887,
          "8": -0.3343659043312073,
          "9": -0.4049382209777832,
          "10": -1.1603622436523438
        }
      },
      "98": {
        "bias": -0.9972001910209656,
        "weights": {
          "0": -0.09989486634731293,
          "1": -0.4234086275100708,
          "2": -0.41933539509773254,
          "3": -0.22689369320869446,
          "4": -0.544771134853363,
          "5": -0.6128610372543335,
          "6": -0.40539658069610596,
          "7": -0.5510979890823364,
          "8": -0.2380615770816803,
          "9": -0.33916065096855164,
          "10": -0.8794797658920288
        }
      },
      "99": {
        "bias": -12.88808822631836,
        "weights": {
          "0": -3.654322624206543,
          "1": 1.6856259107589722,
          "2": 3.48514723777771,
          "3": -2.2459099292755127,
          "4": -5.132137298583984,
          "5": 4.823197364807129,
          "6": -4.898132801055908,
          "7": 5.703482151031494,
          "8": 5.518176078796387,
          "9": 14.504749298095703,
          "10": -10.521346092224121
        }
      }
    },
    {
      "0": {
        "bias": 16.394996643066406,
        "weights": {
          "0": -0.10969960689544678,
          "1": 0.28613555431365967,
          "2": 2.4975130558013916,
          "3": -1.060319423675537,
          "4": -6.125581741333008,
          "5": -1.0922040939331055,
          "6": -0.41773781180381775,
          "7": -0.12750300765037537,
          "8": -12.360954284667969,
          "9": -6.918394565582275,
          "10": -0.3031972050666809,
          "11": -0.28936612606048584,
          "12": -0.06735299527645111,
          "13": 1.4154750108718872,
          "14": 0.7110517621040344,
          "15": -8.755377769470215,
          "16": 0.6311001181602478,
          "17": -3.6133430004119873,
          "18": 0.08556845784187317,
          "19": 1.056298851966858,
          "20": 0.3950624465942383,
          "21": -25.379377365112305,
          "22": -10.244973182678223,
          "23": 0.14492805302143097,
          "24": 0.6927111148834229,
          "25": 1.2838908433914185,
          "26": 11.364398956298828,
          "27": -11.315397262573242,
          "28": 0.4782892167568207,
          "29": -12.823492050170898,
          "30": -0.42302459478378296,
          "31": 1.565139889717102,
          "32": 0.043406710028648376,
          "33": -0.01511709950864315,
          "34": -10.178343772888184,
          "35": 13.515043258666992,
          "36": -13.422514915466309,
          "37": -0.7308169603347778,
          "38": -1.6240365505218506,
          "39": -0.11174149811267853,
          "40": -6.83270263671875,
          "41": -0.3575688600540161,
          "42": -0.3263339400291443,
          "43": 0.22262205183506012,
          "44": 0.19708070158958435,
          "45": 6.359246730804443,
          "46": -0.28626978397369385,
          "47": 0.4901635944843292,
          "48": 0.08218751847743988,
          "49": -13.184162139892578,
          "50": 0.3015310764312744,
          "51": -13.365443229675293,
          "52": 3.6995699405670166,
          "53": -0.5165428519248962,
          "54": -0.46409904956817627,
          "55": -0.12735839188098907,
          "56": 0.40393146872520447,
          "57": -0.12602251768112183,
          "58": 0.1935901641845703,
          "59": -13.794336318969727,
          "60": 0.5227566361427307,
          "61": 0.13735389709472656,
          "62": 1.4649654626846313,
          "63": 0.3165786564350128,
          "64": 0.18782822787761688,
          "65": 0.3560583293437958,
          "66": 1.1114429235458374,
          "67": 0.3320416808128357,
          "68": 0.06782703846693039,
          "69": 0.5791205763816833,
          "70": 2.169436454772949,
          "71": 0.8650652170181274,
          "72": 0.25369182229042053,
          "73": -8.434908866882324,
          "74": 16.35296058654785,
          "75": 0.6073036789894104,
          "76": 0.5979639887809753,
          "77": 11.599837303161621,
          "78": -17.363521575927734,
          "79": 0.5182670950889587,
          "80": -0.012699180282652378,
          "81": 0.17535194754600525,
          "82": -11.31238079071045,
          "83": 0.5871641039848328,
          "84": 0.24693769216537476,
          "85": -0.972965657711029,
          "86": -0.05268083140254021,
          "87": -0.009103386662900448,
          "88": 10.576122283935547,
          "89": -0.283888578414917,
          "90": 0.717045783996582,
          "91": 10.876923561096191,
          "92": 0.5165576934814453,
          "93": -1.4001356363296509,
          "94": 0.14847759902477264,
          "95": 0.3588199317455292,
          "96": -0.5834223031997681,
          "97": 0.37169256806373596,
          "98": 0.16869455575942993,
          "99": -13.126952171325684
        }
      }
    }
  ],
  "outputLookup": false,
  "inputLookup": false,
  "activation": "sigmoid",
  "trainOpts": {
    "iterations": 20000,
    "errorThresh": 0.005,
    "log": true,
    "logPeriod": 10,
    "learningRate": 0.3,
    "momentum": 0.1,
    "callbackPeriod": 10,
    "timeout": 40000,
    "beta1": 0.9,
    "beta2": 0.999,
    "epsilon": 1e-8
  }
}